<?xml version="1.0"?>
<opencv_storage>
<opencv_ml_svm>
  <format>3</format>
  <svmType>C_SVC</svmType>
  <kernel>
    <type>LINEAR</type></kernel>
  <C>1.</C>
  <term_criteria><iterations>1000</iterations></term_criteria>
  <var_count>900</var_count>
  <class_count>3</class_count>
  <class_labels type_id="opencv-matrix">
    <rows>3</rows>
    <cols>1</cols>
    <dt>i</dt>
    <data>
      0 1 2</data></class_labels>
  <sv_total>3</sv_total>
  <support_vectors>
    <_>
      -4.91723344e-02 -1.62565783e-02 0. 0. -8.39589387e-02 0.
      -3.22372071e-03 -1.07731356e-03 -4.58037890e-02 -1.74255292e-05
      -1.42342799e-06 -4.25943881e-06 0. 0. 0. 0. -2.92160689e-06
      -1.80309180e-05 -7.30843144e-03 -7.21363584e-04 -2.73461410e-05 0.
      -1.00754239e-02 -1.06322055e-03 -1.63395249e-04 -1.07054936e-03
      -7.30843144e-03 -2.09441828e-03 -1.52299268e-04 -1.53934350e-04
      -5.54254038e-05 -3.73731484e-04 -2.97573333e-05 -3.35852346e-05
      -4.76895220e-04 -2.09441828e-03 -5.01136856e-05 -4.18156924e-06
      -1.25128490e-05 0. -9.79415404e-07 0. 0. -2.33302853e-05
      -5.49479773e-05 -4.48979954e-05 -2.78771267e-07 -8.34189905e-07 0.
      -2.24138221e-05 0. 0. -1.06046764e-05 -4.70954037e-05
      -2.12531700e-03 -2.12551153e-04 -3.96708172e-04 -4.42595687e-04
      -7.93723157e-04 -4.33240872e-04 -2.20438480e-04 -4.04314749e-04
      -2.12531700e-03 -2.12531700e-03 -2.19830526e-05 -6.57815690e-05
      -2.01179864e-04 -1.07489596e-03 -4.50458087e-04 -1.11816160e-04
      -1.71614840e-04 -2.12531700e-03 -9.02838747e-06 0. 0. 0.
      -9.09189657e-06 0. 0. 0. -9.02838747e-06 -4.07967484e-03
      -1.38458353e-03 -4.21537599e-03 -2.49893945e-02 -3.88933793e-02
      -4.71548438e-02 -9.54415649e-03 -4.34987480e-03 -4.63798409e-03
      -8.49976932e-05 0. 0. 0. -2.47961376e-04 -2.52781574e-05
      -4.22283892e-06 0. -1.58502356e-04 -2.53339391e-03 -8.89477378e-04
      -1.98644237e-03 -4.34136856e-03 6.77756071e-02 -2.02877335e-02
      -6.24606898e-03 -1.60447299e-03 -2.56036082e-03 -2.78211664e-05
      7.56360032e-03 -4.60505951e-03 -1.12142973e-02 -1.95704494e-02
      3.59387626e-03 1.66838709e-02 2.73168227e-03 -3.45691340e-04
      -6.48737978e-03 2.49434300e-02 2.08975542e-02 -2.34848894e-02
      -2.48618517e-02 2.49087140e-02 4.35645729e-02 -1.14516765e-02
      -8.74450617e-03 -1.94643668e-04 -1.87363607e-04 6.62618643e-03
      2.57177483e-02 -2.48618517e-02 3.23086679e-02 2.52664778e-02
      2.27141636e-03 -1.79442388e-04 -1.13968821e-02 3.28061613e-03
      5.13612032e-02 6.30429164e-02 -2.48618517e-02 5.10670021e-02
      5.63607700e-02 -6.15888415e-03 -1.54968379e-02 -2.57883919e-03
      3.66830453e-02 3.31790932e-02 -1.00421496e-02 2.94968914e-02
      -7.01535726e-04 5.40623628e-02 -2.56109331e-02 -4.13419753e-02
      3.55762765e-02 6.90870434e-02 3.26717421e-02 -1.19829224e-03
      5.53090461e-02 2.78182008e-04 2.29730718e-02 -1.31055629e-02
      -3.55178374e-03 -1.90685373e-02 3.10530253e-02 3.61774638e-02
      8.23039468e-03 -2.42252671e-03 -1.43534392e-02 4.14028279e-02
      -2.12830566e-02 -7.30167329e-02 -3.63431731e-03 4.42351960e-02
      1.13784363e-02 -1.21760392e-03 -2.42252671e-03 -6.34184433e-03
      1.79757420e-02 -3.68600227e-02 -7.56779164e-02 -1.96417561e-03
      -2.87074666e-03 -3.23192216e-03 -1.20414374e-03 -2.05818354e-03
      9.03793494e-04 -8.78357503e-04 8.40533711e-03 -1.13713229e-02
      6.83723064e-03 -5.63290017e-03 -1.63960841e-03 -1.30750402e-03
      -1.07543764e-03 3.20307538e-03 -9.94689856e-03 4.99734422e-03
      -2.32427344e-02 -1.54904453e-02 -8.16360023e-03 4.93593551e-02
      -5.60287212e-04 -1.39657939e-02 6.83879182e-02 6.60596192e-02
      2.55699102e-02 -1.54904453e-02 -1.54904453e-02 -1.28392829e-02
      5.21429032e-02 -1.58154257e-02 5.27999410e-03 3.14266942e-02
      -3.99403870e-02 1.63268168e-02 -1.54904453e-02 -2.95435311e-03
      -1.02210874e-02 -5.85942622e-03 -9.10985691e-04 -1.22140080e-03
      -1.59387209e-03 -3.07409372e-03 4.56640124e-03 -1.54979723e-02
      -1.07414518e-02 1.00582547e-03 -6.07076660e-03 -3.30767885e-04
      -1.77677185e-03 -5.03411982e-03 -4.42975294e-03 -4.56445618e-03
      -2.05392614e-02 -5.31310448e-03 2.13382184e-03 -8.39192886e-03
      -6.30343379e-03 -2.32887622e-02 -4.61085793e-03 3.17999464e-03
      3.96783501e-02 3.04407952e-03 -5.31310448e-03 2.03578020e-04
      2.45068762e-02 -2.54748762e-02 -4.30049337e-02 6.91113854e-03
      -8.89853633e-04 3.89839821e-02 -5.31310448e-03 -1.90735292e-02
      -5.90875559e-03 -9.69707314e-03 -1.10992428e-03 -1.76044041e-03
      -4.74850088e-03 6.21345919e-03 -1.68269558e-03 -1.20745823e-02
      -3.21622416e-02 -2.43778154e-02 -1.38963601e-02 -7.31871929e-04
      -1.69363506e-02 -5.98625140e-03 -1.19602820e-02 -9.21133440e-03
      -2.73832083e-02 3.56327882e-03 9.30143986e-03 -7.63986856e-02
      -1.88440364e-02 -2.59507298e-02 -3.58050019e-02 6.01357259e-02
      4.76315841e-02 3.56327882e-03 3.56327882e-03 7.92235974e-03
      -9.74260271e-02 1.25552207e-01 -8.10104143e-03 -5.53885140e-02
      1.70475729e-02 3.19547057e-02 3.83676402e-03 -5.45092579e-03
      -1.02485744e-02 -1.43860476e-02 1.11977477e-02 2.48020180e-02
      -1.68913584e-02 -5.99382771e-03 -5.56387706e-04 -5.64437080e-03
      -4.37819911e-03 -4.79130819e-03 -1.12037398e-02 2.10387055e-02
      2.37497669e-02 -4.26642410e-02 -6.61165512e-04 1.60572736e-03
      -4.08065040e-03 -4.12149429e-02 -3.69711663e-03 -4.22148919e-03
      4.98931818e-02 2.17022710e-02 -2.87180133e-02 -1.86521560e-02
      3.68455872e-02 3.53101827e-03 -2.04296019e-02 -8.51693656e-03
      2.73736771e-02 -2.33727098e-02 2.37497669e-02 -6.32957071e-02
      -2.91758496e-03 1.91485360e-02 5.35185391e-04 -4.36908286e-03
      5.56947244e-03 -4.56637051e-03 -3.38260597e-03 1.77312717e-02
      -3.56930159e-02 -9.03793043e-05 2.45454791e-03 -1.75778661e-02
      -4.87573072e-03 1.27727643e-03 -9.11293924e-03 1.88538823e-02
      1.77312717e-02 1.33739552e-02 -3.76027846e-03 -7.83475116e-03
      -2.13214457e-02 -4.13247198e-03 -1.88629294e-03 1.47117777e-02
      -2.55615506e-02 1.77312717e-02 -5.80443889e-02 -3.54997395e-03
      -2.62391433e-04 -2.31605116e-03 -3.10411979e-03 6.45394030e-04
      6.97523938e-04 -4.12899442e-02 1.77312717e-02 -3.15654129e-02
      -2.13871780e-03 -2.96780909e-05 -3.09527037e-03 -1.98539509e-03
      1.71959884e-02 4.47470471e-02 8.99618771e-03 -2.15064958e-02
      4.69775982e-02 4.01946120e-02 -2.63151620e-02 -7.57047860e-03
      -7.96606764e-03 8.74204095e-03 5.82197420e-02 -1.03560025e-02
      3.18183145e-03 1.66817829e-02 -4.30056714e-02 4.62063104e-02
      -9.67241637e-03 -4.83644707e-03 1.54281901e-02 2.35126894e-02
      -1.04191748e-03 -1.53674083e-02 -1.26578473e-02 6.51926845e-02
      -4.17867601e-02 -6.51274459e-04 -7.89910182e-03 5.42056840e-03
      1.98589098e-02 -1.58423185e-02 3.75360884e-02 2.23267674e-02
      2.05071885e-02 -3.32087576e-02 -9.37049557e-03 -6.45084772e-03
      2.05718670e-02 -2.13709250e-02 -6.90345885e-03 -2.85841227e-02
      -1.09706563e-03 -1.63287204e-02 5.32677583e-02 -1.30867842e-03
      -3.47501459e-03 5.72104100e-03 8.05536844e-03 -2.22539939e-02
      -4.37697768e-02 2.07245219e-02 -1.55178625e-02 2.95995250e-02
      -6.74739573e-03 2.43978295e-03 2.92651635e-02 4.06598374e-02
      -2.21667327e-02 3.44175808e-02 6.46607205e-02 -3.82040814e-02
      -5.23329750e-02 -4.08344483e-03 -3.76649317e-03 3.67306247e-02
      -1.69799756e-02 -1.62859429e-02 1.31574292e-02 5.88985048e-02
      -8.99945386e-03 -2.77073253e-02 6.35751290e-04 -3.99755873e-03
      1.60021354e-02 -5.97897843e-02 -1.61640402e-02 -2.79442389e-02
      -2.21459456e-02 8.06818232e-02 6.36872128e-02 -3.64118093e-03
      -5.55563113e-03 3.34689301e-03 -8.29683170e-02 9.89031643e-02
      -7.13112485e-03 -3.36162597e-02 2.08340436e-02 4.91796732e-02
      -2.57520331e-03 4.42376267e-03 2.86733285e-02 9.42275021e-03
      -9.66889877e-03 -2.62256842e-02 2.35283133e-02 -2.00000070e-02
      -5.64209633e-02 -6.46043010e-03 -5.37242321e-03 3.65276188e-02
      -1.95201673e-02 -2.67828181e-02 -5.22136465e-02 -3.02557857e-03
      3.38295847e-02 -4.89583015e-02 -4.81762318e-03 -3.53678577e-02
      2.74552125e-02 1.63473208e-02 9.26336199e-02 -7.78614823e-03
      -1.79992039e-02 1.36666073e-04 6.30221441e-02 2.17245556e-02
      -1.77103858e-02 1.80479093e-03 4.74461503e-02 -3.47252609e-03
      -1.48923005e-04 -5.59962960e-03 -5.98639203e-03 2.59616747e-02
      8.25725030e-03 -8.25931877e-02 5.59967570e-02 2.49425676e-02
      -1.27280848e-02 -2.83334628e-02 -1.95568278e-02 3.42030972e-02
      -2.96787340e-02 -2.29447223e-02 -2.34859232e-02 3.04623898e-02
      -3.41260131e-03 5.05405217e-02 -1.48923005e-04 3.38791609e-02
      -1.17127877e-03 -1.87093318e-02 7.47006736e-04 -3.50501412e-03
      -2.26360586e-04 8.12162086e-03 -1.09626194e-02 1.01640634e-02
      3.82522424e-03 -4.66701388e-03 -5.64121983e-05 -2.13744445e-03
      2.18062964e-03 4.68096900e-04 3.89860797e-04 -5.66969141e-02
      1.01640634e-02 -5.21790348e-02 -1.36142492e-03 4.98465051e-05
      1.69496459e-03 -3.49821668e-04 3.06516959e-05 -1.44796297e-02
      5.26009314e-02 1.01640634e-02 3.12073417e-02 -1.29111921e-02
      -8.08010867e-04 -1.16485567e-03 1.25668235e-02 1.33895926e-04
      -2.96298228e-03 -5.84813841e-02 1.01640634e-02 -5.48431054e-02
      -7.22372392e-03 3.04580986e-04 1.12742921e-02 -4.21661977e-03
      2.59982962e-02 4.76197153e-02 -2.14555170e-02 2.58988105e-02
      -1.34692946e-02 6.49475455e-02 -5.62458858e-02 -4.19994676e-03
      -5.23356581e-03 1.76177826e-02 3.38022970e-02 -2.42038537e-02
      7.46603757e-02 7.11400285e-02 4.13810723e-02 -6.23096041e-02
      -5.25998930e-03 -1.06752552e-02 3.01136877e-02 -9.14865453e-03
      -1.52743161e-02 5.16702607e-03 -1.97314960e-03 -2.83075850e-02
      -3.45122255e-02 -3.40943076e-02 3.89435631e-03 2.95297522e-02
      -1.68794987e-03 -7.56595051e-03 1.90595817e-02 3.31856944e-02
      1.56883299e-02 -3.67789902e-02 -2.85592116e-02 -5.87835163e-03
      1.14896847e-03 7.97404200e-02 -2.79964395e-02 5.92648350e-02
      1.22491062e-01 -4.02765833e-02 -1.05581395e-01 -6.25207787e-03
      -6.24109106e-03 -3.32345720e-03 -2.76193041e-02 -2.49940250e-02
      4.56002019e-02 1.02900140e-01 3.54193151e-02 -6.22388013e-02
      -6.76180935e-03 -1.77734569e-02 4.77760509e-02 2.42213812e-02
      -5.85857546e-03 1.61998123e-02 4.07958329e-02 -1.55841978e-02
      -4.49069031e-02 -3.35524343e-02 -5.79364831e-03 5.72240092e-02
      -2.41296757e-02 -1.05892150e-02 2.66910661e-02 3.09292842e-02
      2.07403209e-02 -3.87238041e-02 4.05238196e-03 -4.92359068e-05
      1.18812835e-02 4.54654582e-02 -1.68204941e-02 -2.23020408e-02
      4.62920852e-02 -1.22523671e-02 -9.17632580e-02 9.23774554e-04
      -5.55366045e-04 8.46860639e-04 3.09652928e-02 -5.09684682e-02
      -5.62948510e-02 1.07774204e-02 5.63647598e-02 -4.50996794e-02
      -5.55366045e-04 7.28047779e-03 7.92983174e-02 3.29490402e-03
      -1.04570445e-02 -2.69756489e-03 9.21040028e-03 2.12390954e-03
      -3.99343409e-02 9.14401282e-03 -3.07266554e-03 3.86261754e-02
      7.81060848e-03 -1.48395086e-02 -2.26744320e-02 1.01498654e-02
      5.10399379e-02 -2.30789091e-02 9.01481789e-03 -6.30210415e-02
      7.21267164e-02 6.07272685e-02 -2.21805759e-02 -2.59799473e-02
      -1.08824577e-02 6.16480038e-02 -3.54855098e-02 -2.21567750e-02
      -2.16531809e-02 3.52167077e-02 1.62861347e-02 1.44776003e-02
      -1.47068896e-03 3.93370539e-02 1.74470600e-02 -2.65805349e-02
      -3.16496659e-03 5.97346283e-04 2.93592829e-02 3.15246955e-02
      1.45671860e-04 -8.23705457e-04 -9.57971066e-03 2.32456159e-02
      -1.53780123e-02 -3.87422624e-03 -6.17392780e-03 1.04829986e-02
      1.17035219e-02 4.14504781e-02 -1.47068896e-03 1.30912466e-02
      -1.00039998e-02 -1.48041779e-02 -5.27877174e-03 -4.62445518e-04
      -2.91461445e-04 -1.25957783e-02 3.56643870e-02 -5.54750627e-03
      5.18757962e-02 -1.03688079e-04 -1.52398215e-03 -1.80267938e-03
      1.44344298e-02 -3.37023172e-04 -1.64932711e-03 4.98406007e-04
      -5.54750627e-03 -3.23341377e-02 -1.80478096e-02 1.09939196e-04
      1.48204500e-02 -1.77419167e-02 -8.47354904e-03 -1.53570843e-03
      4.63417955e-02 -5.54750627e-03 2.01253425e-02 -1.60945039e-02
      -6.72367495e-03 -1.50026968e-02 -5.33774495e-03 -9.57294460e-03
      -6.43001450e-03 -1.06864264e-02 -5.54750627e-03 5.52492179e-02
      5.98365022e-03 -9.37548652e-03 -5.34136454e-03 -2.54242029e-02
      -3.80092897e-02 -3.69212516e-02 5.96540160e-02 -1.25325430e-04
      -2.37189792e-02 -3.34908217e-02 8.74114130e-03 -7.27346772e-03
      6.23186342e-02 -1.23256994e-02 8.92026443e-03 7.84269944e-02
      3.97127215e-03 2.25097574e-02 -1.34952459e-02 6.65763617e-02
      7.04596117e-02 -2.07045232e-04 0. 0. 0. 0. 0. 0. 0.
      -2.07045232e-04 -1.03838458e-04 0. 0. 0. 0. 0. 0. 0.
      -1.03838458e-04 1.88090932e-02 -3.99265103e-02 -3.34589602e-03
      1.14966799e-02 -3.43939960e-02 9.42910090e-03 -8.41379073e-03
      -6.76868018e-03 1.78654399e-02 2.61130016e-02 -3.05095185e-02
      3.75703163e-03 -2.09315736e-02 5.49811870e-02 -4.07864004e-02
      2.27049924e-03 -3.13617475e-02 1.14117619e-02 -2.62035919e-05 0.
      0. 0. 0. 0. 0. 0. -2.62035919e-05 -7.81315430e-06 0. 0. 0. 0. 0.
      0. 0. -7.81315430e-06 7.85186887e-02 -9.28745419e-03
      -2.90134782e-03 -1.17221493e-02 3.83899957e-02 -6.99413754e-03
      6.19618129e-03 -1.28332227e-02 8.53214860e-02 9.70494300e-02
      -4.34734207e-03 1.99417956e-02 -1.45275528e-02 2.26027910e-02
      -7.68918032e-03 1.73619557e-02 -1.37871141e-02 9.55600068e-02
      -2.84662792e-06 0. 0. 0. 0. 0. 0. 0. -2.84662792e-06
      -6.71771541e-03 -7.38146366e-04 -4.60113212e-03 -2.21419986e-02
      -3.19670513e-02 -2.57794522e-02 -1.19637344e-02 -3.25759919e-03
      -6.71771541e-03 5.78317966e-04 -1.22681470e-03 9.05726757e-03
      -2.86918711e-02 1.49504477e-02 -1.93963125e-02 -2.74512032e-03
      -8.47289455e-04 5.75022888e-04 -1.07775992e-02 -2.66681835e-02
      -6.92625588e-04 -3.98545079e-02 1.35046337e-02 -6.68332726e-02
      2.02248394e-02 -6.16840133e-03 -9.62563232e-03 -3.13758734e-04
      -5.39525552e-03 -6.69819256e-03 -6.03262596e-02 1.35046337e-02
      6.80619031e-02 -1.72623340e-03 -3.81985749e-03 -3.62275168e-04
      4.43363236e-03 -2.56381966e-02 -2.01896876e-02 -8.72350186e-02
      1.35046337e-02 7.79711455e-02 7.25290403e-02 -7.53251417e-03
      2.81983521e-03 -8.32861289e-03 -2.32472885e-02 -3.52414586e-02
      -1.17251398e-02 1.96457654e-03 -4.12196256e-02 7.46749667e-03
      -3.73549536e-02 -5.50357886e-02 1.79793257e-02 1.66245811e-02
      -7.59165585e-02 -7.01127853e-03 1.96457654e-03 6.50061816e-02
      -2.24995464e-02 -2.49710586e-02 -5.66930175e-02 8.56231153e-02
      4.43228520e-02 -3.70281786e-02 -2.22824849e-02 2.54476978e-03
      -2.45507481e-03 7.95843378e-02 -4.23884131e-02 -1.18863806e-02
      3.51992473e-02 7.30322152e-02 -6.70216829e-02 1.33887613e-02
      2.05153265e-05 2.81778164e-03 -9.99047421e-03 -8.79895873e-03
      1.73759349e-02</_>
    <_>
      -1.07306084e-02 -2.70461012e-02 -4.97777574e-02 -4.43456434e-02
      -2.13764776e-02 -1.18318922e-03 -2.58559384e-03 -1.94325333e-03
      -7.94078410e-03 -3.42288315e-02 -2.72992607e-02 -4.89967912e-02
      -3.44327800e-02 -1.93119440e-02 -1.99435931e-03 -5.26471063e-03
      -1.50291910e-02 -3.14935893e-02 -7.66297057e-03 -2.47769635e-02
      -4.89313453e-02 -4.66917306e-02 -2.94206087e-02 -9.51564638e-04
      -1.97147182e-03 -1.75633584e-03 -5.75643079e-03 -9.64436587e-03
      -1.48424506e-02 -4.86889035e-02 -2.91468576e-02 -1.55692818e-02
      -1.23800884e-03 -2.75226799e-03 -3.99439223e-03 -7.81347882e-03
      -5.21433093e-02 -1.80441942e-02 -2.59436499e-02 -1.05569204e-02
      -1.28517039e-02 -2.98498175e-03 -1.67426504e-02 -4.04852815e-02
      -5.38384095e-02 -5.68629503e-02 -1.29355211e-02 -2.25969194e-03
      -1.48370978e-03 -4.80416371e-03 -2.79869302e-03 -2.48886589e-02
      -4.22750153e-02 -5.66552840e-02 -1.63265523e-02 -6.25839038e-03
      -1.36523824e-02 -8.13781377e-03 -8.44855048e-03 -1.52161764e-03
      -4.95369127e-03 -1.15881208e-02 -2.15019900e-02 -3.54201086e-02
      -6.19014725e-03 -2.65215989e-03 -2.33897706e-03 -6.48442935e-03
      -8.91684089e-04 -1.04296729e-02 -2.12485902e-02 -4.50296514e-02
      -5.16898409e-02 -1.49126183e-02 -2.14529969e-03 -4.76490794e-04
      -1.30106648e-03 -1.63770758e-03 -1.61784589e-02 -3.96025851e-02
      -5.30611463e-02 -5.35587110e-02 -1.55486222e-02 -2.44119321e-03
      -3.30590294e-04 1.15228854e-01 -1.48393097e-03 -2.02974938e-02
      -4.03066985e-02 -5.32330908e-02 -3.25335823e-02 -6.90837158e-03
      -8.41530156e-04 -1.82395524e-04 -7.38040719e-04 -9.49258974e-04
      -9.33469087e-03 -1.98107436e-02 -4.01013196e-02 -3.92247811e-02
      -7.81095820e-03 -7.36302638e-04 -1.74185596e-04 1.15400024e-01
      -1.67496339e-03 -1.37611702e-02 -3.14937569e-02 -4.72948067e-02
      -4.60359231e-02 -6.48748362e-03 3.72005929e-03 4.80291666e-03
      5.83271272e-02 1.56784784e-02 -1.05262501e-03 -3.28915790e-02
      -5.10591008e-02 -2.68930979e-02 -3.66114872e-03 1.21695073e-02
      7.51691405e-03 3.98963280e-02 2.29691938e-02 1.01284469e-02
      -1.59333348e-02 -3.44458297e-02 -3.12620141e-02 -5.25943143e-03
      4.01180441e-04 6.59465510e-03 3.55259106e-02 9.98149905e-03
      -8.51793122e-03 -2.00861879e-02 -3.71727906e-02 -1.61740277e-02
      -2.35707406e-03 1.67291928e-02 1.57704875e-02 2.13721413e-02
      1.31358709e-02 -7.47030787e-03 -1.02453614e-02 -2.18619965e-02
      -6.53555151e-03 7.97239318e-03 1.08712325e-02 1.51981751e-03
      2.43392363e-02 -3.81208607e-04 3.77781107e-03 -9.32758581e-03
      -1.26139903e-02 7.66523369e-03 2.52429973e-02 1.06155677e-02
      -3.62957187e-04 1.19366217e-02 -3.74523364e-03 -2.42451811e-03
      -6.78606704e-03 3.97194130e-03 -1.41775876e-03 1.24713378e-02
      1.71110164e-02 2.11137766e-03 4.90464736e-03 -5.97327342e-03
      -3.68646788e-03 -2.93938303e-03 -8.63072276e-03 1.49870594e-03
      2.07692031e-02 5.07104909e-03 1.31530978e-03 1.00365542e-02
      -3.85559048e-03 1.55257265e-04 -8.30490328e-03 -1.16121890e-02
      -1.78149424e-03 -1.05854794e-02 -3.79894041e-02 -3.60998511e-02
      -4.40903641e-02 -4.40787012e-03 -7.55869085e-03 2.94526253e-04
      -4.07668622e-03 -1.17649953e-03 -2.47669988e-03 -2.03014929e-02
      -1.07040759e-02 -1.27844354e-02 -3.08698160e-04 -2.99856445e-04
      1.12848182e-03 -4.89490386e-03 5.81173645e-03 2.80192848e-02
      1.84156019e-02 1.77894346e-03 -2.68139802e-02 6.79402892e-03
      1.60747264e-02 1.54586677e-02 4.24580416e-03 4.33300249e-03
      1.26783615e-02 3.42300199e-02 6.84952363e-03 5.50846707e-05
      1.47351343e-02 2.39232946e-02 1.30582470e-02 4.33632731e-03
      -6.37294119e-03 -1.64825993e-03 -2.83756503e-03 -2.53908406e-03
      -7.07299262e-03 -7.55720190e-04 -1.59699656e-03 -5.20245230e-04
      -9.27088410e-03 -7.75023131e-03 1.97766768e-03 -3.42378719e-03
      -1.30855129e-03 -6.85040606e-03 -6.01393403e-04 -2.60433066e-03
      -3.85301188e-03 -1.25981076e-02 -2.88598356e-03 6.89509325e-03
      1.97935421e-02 2.99682934e-03 -5.74643956e-03 5.52252261e-03
      2.35288069e-02 1.19864233e-02 -2.86214123e-03 -7.74893584e-03
      5.96796582e-03 2.75384076e-02 -2.00379966e-03 -4.38537076e-03
      8.55689589e-03 1.16437320e-02 7.75368139e-03 -7.29529653e-03
      -1.10034766e-02 1.85175880e-03 -3.29485280e-03 -2.92880111e-04
      -6.55715645e-04 -5.26486663e-04 1.62327744e-03 -4.12009656e-03
      -1.30890813e-02 -1.90600250e-02 -2.24818429e-03 -5.24234585e-03
      -8.56124971e-05 -5.62350169e-06 -5.22048213e-04 -1.25256518e-03
      -9.83741134e-03 -2.95399614e-02 -5.69680892e-03 1.00594470e-02
      6.63426286e-03 -8.07061966e-04 -1.60761771e-03 8.11643898e-04
      2.69855168e-02 1.18723875e-02 -5.69680892e-03 -5.69680892e-03
      5.57916053e-03 4.80918540e-03 2.74938326e-02 1.21246781e-02
      -9.12120624e-04 2.76094023e-02 1.00982683e-02 -5.69680892e-03
      -1.14689237e-02 -3.32025718e-03 -8.79822019e-03 -9.53380877e-05
      3.60456780e-02 -2.16785702e-03 -5.98344766e-03 -5.83329611e-03
      -1.75354145e-02 -7.62816984e-03 -2.94453138e-03 -1.20331468e-02
      -5.00419410e-03 2.25194246e-02 -1.40558882e-02 -1.19844452e-02
      -5.65784937e-03 -9.86413285e-03 -2.11595315e-02 -7.23199337e-04
      6.13919087e-03 1.09818615e-02 3.02812830e-02 -1.13680842e-03
      9.64343548e-03 6.00963598e-03 -1.72234960e-02 -1.37149440e-02
      -7.39150168e-03 -5.49806794e-03 -8.69887602e-03 2.26301085e-02
      -7.04487786e-03 -6.18713582e-03 -1.80235424e-03 -1.19303595e-02
      -9.60502960e-03 -7.83228083e-04 -4.14052885e-03 -2.83472217e-03
      2.28807125e-02 -1.54362349e-02 -1.22482190e-02 -4.81117610e-03
      -7.96668045e-03 -1.44771626e-02 -4.64243954e-03 -7.82253593e-03
      1.99580193e-03 1.71223395e-02 -9.49188508e-03 -1.74364168e-02
      -8.92069004e-03 -1.09774880e-02 -8.67515989e-03 -4.46746452e-03
      -1.02597130e-02 -8.79507232e-03 2.36457288e-02 -5.77443512e-03
      -1.15957595e-02 -4.72495286e-03 -8.42339173e-03 -1.00456253e-02
      -4.34432179e-03 -7.58423423e-03 -1.14705665e-02 1.81260593e-02
      -1.13178585e-02 -8.25751014e-03 -3.03297443e-03 -9.64377169e-03
      -2.84259254e-03 2.34427713e-02 2.35922877e-02 1.01081468e-02
      -6.87689707e-03 6.89418893e-03 1.14764972e-02 -4.67509235e-04
      -2.85797380e-03 -3.17542930e-03 6.57223212e-03 2.61705667e-02
      5.29331947e-03 1.18233822e-03 8.87398049e-03 1.23586766e-02
      8.86384770e-03 -3.16956523e-03 -6.01347187e-04 7.33202603e-03
      2.22454150e-03 9.29010057e-05 -5.66719100e-03 2.43552821e-03
      2.37089489e-02 -1.09267235e-03 -1.52492034e-03 -2.82259588e-03
      7.51087582e-03 7.69111048e-03 -1.00493827e-03 6.50039036e-03
      6.03749324e-03 1.23051153e-02 -1.34553555e-02 -2.96359276e-03
      -3.53421248e-03 1.26787173e-02 1.60614587e-02 2.76684319e-03
      -5.67958830e-03 4.54543950e-03 1.84341669e-02 1.83609668e-02
      -3.43984412e-03 -6.93861255e-03 1.30377449e-02 2.34084968e-02
      -1.71587628e-03 -2.32456555e-03 8.44062585e-03 8.53379723e-03
      6.57072244e-03 -6.80950517e-03 -5.17625315e-03 1.51963197e-02
      1.08850887e-02 -2.48573767e-03 5.01855183e-03 1.48717677e-02
      2.87459185e-03 -1.42982379e-02 -2.94857402e-03 -9.45378933e-03
      1.07776299e-02 -1.12001481e-03 -1.09239412e-03 4.23153583e-03
      1.66318566e-02 3.74944811e-03 -7.96233490e-03 -8.09924491e-03
      -5.17050363e-03 1.48114152e-02 7.04246480e-03 -1.09882664e-03
      -1.51348149e-03 1.15054299e-03 2.52923556e-02 1.39328251e-02
      -8.08477588e-03 -5.22497017e-03 8.56117532e-03 4.43255249e-03
      2.13175453e-02 9.22221318e-03 -3.04352056e-04 2.39378493e-02
      1.03602642e-02 -8.58447701e-03 -9.60379280e-03 9.39007103e-03
      4.53933328e-03 3.72452661e-04 3.64084175e-04 1.09166121e-02
      -2.53397366e-03 -1.05828717e-02 -9.31839459e-03 -9.60379280e-03
      1.25273466e-02 3.66922235e-03 -1.28962973e-03 2.18252928e-04
      8.82269628e-03 1.05726412e-02 -2.87709734e-03 -6.34378148e-03
      -1.20820859e-02 5.87280188e-03 1.90130454e-02 1.88044310e-02
      1.56758297e-02 -2.54572777e-04 1.45118525e-02 1.51757021e-02
      -5.16684400e-03 -9.09734797e-03 -4.01039235e-03 1.06967054e-02
      -3.81728983e-03 1.38235157e-02 1.10345716e-02 -8.63786321e-03
      1.95346656e-03 -8.08597915e-03 -2.16818471e-02 1.23091713e-02
      9.14631039e-03 -1.26473035e-03 3.56932404e-03 -6.88984408e-04
      1.29733346e-02 -2.28625169e-04 -1.48786595e-02 -1.36799840e-02
      1.86731096e-03 1.22128904e-03 7.11913779e-03 1.19699584e-02
      1.83528922e-02 1.96970371e-03 -2.34260736e-03 -1.25610000e-02
      -8.12195614e-03 -4.09079855e-03 -2.96580209e-03 -3.52870114e-03
      1.29392119e-02 1.03337951e-02 -9.99685097e-03 -4.49205469e-03
      -8.02338216e-03 -8.62928294e-03 -3.57976463e-03 -3.95800127e-03
      -9.97898355e-03 1.20019112e-02 -9.04220622e-03 -3.07176565e-03
      -1.86716241e-03 -8.73205625e-03 -7.89767038e-03 -3.64923989e-03
      -2.25430471e-03 4.65181191e-03 1.09321624e-02 1.74681880e-02
      -3.00917169e-03 -2.09205155e-03 -8.14183056e-03 -6.43629441e-03
      -2.76774028e-03 -7.40660471e-04 -3.75070027e-03 1.14853084e-02
      -5.79067459e-03 -3.94931296e-03 -1.68668723e-03 -6.19821809e-03
      3.18853115e-03 1.88098624e-02 1.37548475e-02 -7.58358138e-03
      -1.26089873e-02 1.69465238e-05 2.28599012e-02 6.34274911e-03
      4.90004150e-03 1.92561059e-03 1.35615133e-02 2.55387742e-02
      -1.60746393e-03 1.77499559e-02 2.15624776e-02 2.98861451e-02
      -7.88558368e-03 2.15201313e-03 4.66880156e-03 1.89863518e-02
      -1.69397646e-03 -8.71352199e-03 -3.72254141e-02 -3.28205489e-02
      -3.15489173e-02 -1.56042380e-02 -3.57613293e-03 7.73601001e-03
      2.25203373e-02 6.54630503e-03 -1.83502806e-03 -2.47629010e-03
      -3.97913624e-04 -7.40292575e-03 -8.88004526e-03 3.75202479e-04
      -5.31549845e-03 1.11929476e-02 2.33916491e-02 -3.50738969e-03
      1.11627141e-02 2.96255257e-02 1.03368675e-02 -2.01116968e-02
      -4.67877695e-03 -9.38754063e-03 1.93920813e-03 8.29045288e-03
      -5.09436650e-04 1.07186660e-02 3.10957655e-02 1.73992477e-02
      -1.15851695e-02 -7.66059710e-03 -6.86615123e-04 2.16801167e-02
      8.46102834e-03 -1.94799877e-03 -8.08945158e-04 8.08692072e-03
      3.47028393e-03 -8.31764471e-03 -6.35944726e-03 3.71538365e-04
      2.12072972e-02 5.47090359e-03 -3.10757081e-04 1.77629478e-03
      9.68667027e-03 8.04279558e-03 -6.64950721e-03 6.01210559e-05
      -7.36177014e-03 6.21593324e-03 2.01263987e-02 2.08236557e-03
      4.06974088e-03 2.02595815e-02 1.96230481e-03 -1.19893262e-02
      -7.36177014e-03 -7.36177014e-03 3.73653765e-03 2.07959376e-02
      -1.72284385e-03 9.88952350e-04 1.61012635e-02 1.39919352e-02
      1.28792494e-03 -7.36177014e-03 -2.92141247e-03 2.17824411e-02
      1.09242089e-02 5.83212473e-04 3.23648308e-03 5.94166806e-03
      2.91488320e-03 -4.63288557e-03 1.39821041e-03 -1.18424678e-02
      1.14401532e-02 8.99538491e-03 -9.48801026e-05 4.23870137e-04
      5.57779521e-03 1.06556043e-02 4.13482601e-04 -7.31645292e-03
      -2.32422799e-02 1.66258812e-02 1.74016580e-02 -1.74532901e-03
      1.24275703e-02 -4.26029619e-05 1.65116563e-02 1.39794347e-03
      -1.84177961e-02 -1.55971367e-02 1.83525181e-03 4.97527188e-04
      3.08938022e-03 1.51079865e-02 5.95584325e-03 -2.46749911e-03
      -8.73644429e-04 -1.23403026e-02 -1.26336720e-02 2.01310031e-03
      -2.19410518e-04 -2.60469620e-03 2.92696711e-02 -1.60854950e-03
      3.32842628e-03 7.23605801e-04 -9.84859094e-03 -1.14355665e-02
      -4.14889678e-03 -1.46599282e-02 1.43033022e-03 1.80365425e-02
      -2.37144134e-03 -1.48675162e-02 -1.45705033e-03 -8.65151454e-03
      -7.84385111e-03 -3.94537998e-03 -4.64067794e-03 1.06643159e-02
      1.48547273e-02 1.47320516e-02 -5.58516290e-03 -1.61409960e-03
      -7.85534736e-03 -5.82155166e-03 -3.73702566e-03 -3.38371703e-03
      -5.62736182e-04 1.28379269e-02 -3.79664754e-03 -5.35516068e-03
      -2.79249833e-03 -4.56219027e-03 -1.21744918e-02 -7.14090420e-03
      -1.53262168e-02 8.86279438e-03 1.66875105e-02 2.91884411e-03
      -1.47243198e-02 -5.25242137e-03 -1.33208428e-02 -1.28175253e-02
      -1.12259956e-02 -2.06494778e-02 -1.31055973e-02 1.12262005e-02
      1.58736063e-03 -3.18602985e-03 -7.64424587e-03 -1.75412744e-02
      6.06076829e-02 6.66307937e-03 9.89458291e-04 1.35761015e-02
      7.18668103e-03 -4.36844639e-02 -4.65279296e-02 -1.45334667e-02
      5.47501892e-02 7.61682615e-02 1.40390797e-02 1.39213698e-02
      1.86870005e-02 1.98833011e-02 -1.64633375e-02 -3.88752036e-02
      8.03528726e-03 7.49356970e-02 -9.20453668e-03 -2.03082082e-03
      -1.65000709e-03 -1.41372927e-03 -2.42729224e-02 -4.61115018e-02
      -4.92682271e-02 -2.91129872e-02 -1.08322632e-02 -3.10305692e-02
      -1.77929644e-02 -4.11496544e-03 -9.57488082e-04 -1.94844827e-02
      -3.61514054e-02 -4.83256131e-02 -3.32265347e-02 -2.98582911e-02
      6.40881062e-02 2.28222134e-03 7.77568761e-03 7.17090582e-03
      8.22355784e-03 -9.74506314e-04 -2.57241051e-03 1.67394464e-03
      6.69067428e-02 4.11889888e-02 -1.42067093e-02 3.05219786e-03
      2.01452570e-03 3.40528265e-02 -9.40441445e-04 3.00014415e-03
      -2.16973550e-03 5.39763197e-02 -5.80887161e-02 -5.20373210e-02
      -1.48379095e-02 -1.27514428e-03 -1.05975214e-02 -1.05537754e-02
      -3.00285313e-02 -2.26228833e-02 -5.36461622e-02 -5.80887161e-02
      -4.98044118e-02 -1.44559992e-02 -8.83379078e-04 -9.38470569e-03
      -1.37590792e-03 -6.58311509e-03 -1.49386572e-02 -5.68678007e-02
      1.16929719e-02 -1.41571015e-02 -4.24826471e-03 -5.76537568e-04
      1.14214383e-02 -2.10728394e-04 -4.56197340e-05 -5.21847745e-03
      1.93207730e-02 -9.26350243e-03 -2.48383414e-02 -3.39592714e-03
      -9.52182396e-04 7.34364390e-02 6.73994946e-04 4.45785094e-03
      -3.70285683e-03 1.18868914e-03 -5.65217137e-02 -3.82081196e-02
      -1.26607297e-02 -1.10037834e-03 -5.03781531e-03 -6.43909560e-04
      -6.03169668e-03 -1.62526928e-02 -5.40583655e-02 -5.65217137e-02
      -4.91108224e-02 -1.49476025e-02 -2.29423656e-03 1.16645731e-01
      -1.77866677e-04 -5.92054520e-03 -1.61780082e-02 -5.65217137e-02
      -3.22807804e-02 -2.21260618e-02 -1.46814659e-02 -3.27632413e-03
      4.42618169e-02 -1.30100152e-03 -3.02110612e-03 -4.04331833e-03
      -2.19554342e-02 -1.32199526e-02 -1.28971664e-02 -2.26838049e-02
      -2.68066279e-03 3.02110743e-02 -7.65603315e-03 1.15477561e-03
      -2.98759248e-03 -8.00524652e-03 -5.09893112e-02 -3.97101641e-02
      -4.17413842e-03 3.91459791e-03 6.11998104e-02 2.00882722e-02
      -3.14652594e-03 -1.82200111e-02 -4.42259870e-02 -3.22396904e-02
      -1.87191069e-02 -3.77174467e-03 3.42054619e-03 4.28027697e-02
      2.66476963e-02 1.27537427e-02 -2.16068644e-02 -2.64456347e-02
      2.14566826e-05 3.30114877e-03 -2.02316027e-02 -1.70863932e-03
      8.55437014e-03 -6.48497557e-03 3.77991050e-03 -4.66397172e-03
      -9.56661627e-03 1.73713034e-03 1.20134361e-03 -2.07646228e-02
      -2.53949524e-03 1.24775711e-02 6.60881028e-03 4.00291104e-03
      3.81750125e-03 -8.22767057e-03 3.50113935e-03 7.68853910e-03
      -1.25980657e-02 -3.92639963e-03 2.11268291e-02 2.19082087e-03
      1.99220255e-02 -6.66093826e-03 -4.96090576e-03 6.66373968e-03
      7.18030101e-03 -1.58924926e-02 -2.64587440e-03 1.65738408e-02
      -1.95553573e-03 4.12959978e-03 1.74988024e-02 1.09050032e-02</_>
    <_>
      4.52446193e-02 -8.46795514e-02 -5.97561598e-02 -3.94709520e-02
      3.71930040e-02 1.97026711e-02 5.18138288e-03 1.26199909e-02
      1.05680795e-02 -3.66651011e-03 -5.14821596e-02 -7.98690543e-02
      -2.17013806e-02 1.29094897e-02 3.50026437e-03 -5.06500807e-03
      -6.42744824e-02 -1.08935200e-02 4.75295680e-03 -1.80898979e-02
      -5.13101220e-02 -5.78412451e-02 -4.27345857e-02 1.74729899e-02
      3.14302966e-02 2.04551462e-02 1.80802699e-02 4.48821448e-02
      -4.44292411e-04 -8.82201567e-02 -2.90191341e-02 -6.99558994e-03
      7.21410662e-03 2.33052205e-02 -2.26935651e-03 5.03106304e-02
      -8.54774565e-02 -2.55863070e-02 -6.36923164e-02 -6.59031980e-03
      1.16648115e-02 -2.81165517e-03 -3.06913517e-02 -2.46458501e-02
      -8.83250684e-02 -1.98018193e-01 -4.15341556e-02 -2.16017682e-02
      3.61723010e-04 4.29624990e-02 -3.67788784e-03 -4.29996587e-02
      -3.07606533e-02 -1.23440534e-01 7.32820295e-03 3.19196400e-03
      -4.27085832e-02 -7.86559377e-03 3.49268951e-02 2.41741128e-02
      2.07132325e-02 5.04122861e-03 4.07567210e-02 -8.12209696e-02
      -7.66478200e-03 3.81469750e-03 1.05723995e-03 6.08358234e-02
      1.17239589e-02 -4.47003776e-03 -3.06204930e-02 -2.69578975e-02
      -1.62503496e-01 -4.50358167e-02 2.32766615e-03 2.34375987e-02
      6.80273175e-02 2.69375574e-02 -9.60052852e-03 -6.07400909e-02
      -1.43552348e-01 -1.33087814e-01 -4.44344543e-02 -1.17293959e-02
      2.44953930e-02 5.75048365e-02 2.35460829e-02 1.52259748e-02
      -3.79763953e-02 -1.46400839e-01 -4.64547426e-02 -5.14296698e-04
      4.31464650e-02 4.05522585e-02 1.14339277e-01 1.74540300e-02
      1.31273526e-03 1.85068697e-03 -1.21549536e-02 -8.36298615e-02
      1.01869169e-03 2.08714306e-02 2.26970986e-02 9.31495577e-02
      3.12083792e-02 -1.48941306e-02 1.48782358e-02 -4.26172167e-02
      -8.70243236e-02 -3.35882790e-02 -2.02862658e-02 -4.18356666e-03
      5.66660464e-02 4.07412788e-03 1.68264413e-03 -5.67697398e-02
      -1.46096721e-01 -8.29011500e-02 -2.56389081e-02 7.72114098e-03
      -3.92944179e-03 -2.26144050e-03 -4.33385186e-03 -3.96048576e-02
      -3.50371934e-02 -9.55652893e-02 -8.87487009e-02 -9.68306977e-03
      1.80115309e-02 1.11456169e-02 4.09710705e-02 2.27623377e-02
      -5.48500493e-02 -5.42858876e-02 -4.00410518e-02 -1.07430946e-02
      1.01545360e-02 2.00924892e-02 4.08853069e-02 4.15863879e-02
      2.40727048e-02 -6.22752234e-02 1.29599348e-02 1.16649074e-02
      -1.35317529e-02 -8.81444477e-03 1.55082280e-02 1.82376162e-03
      -1.02503235e-02 -3.58706266e-02 -5.38857058e-02 -1.10410014e-03
      -3.62479873e-02 4.37810645e-02 -1.36665450e-02 -5.58151910e-03
      2.62984377e-03 1.38234841e-02 -5.52428104e-02 -3.66877206e-02
      -1.38746640e-02 1.62424799e-02 5.46443313e-02 1.35757299e-02
      2.95629306e-03 4.40470017e-02 5.41661587e-03 -4.65454441e-03
      -1.20399155e-01 -1.23699440e-03 4.72758152e-03 3.78055722e-02
      9.63701401e-03 2.95316000e-02 -5.04443888e-04 2.13588681e-02
      -7.63402134e-02 -5.43096736e-02 -8.25733468e-02 3.96149233e-02
      -1.09382328e-02 -1.89377076e-03 -4.66626808e-02 -5.46110719e-02
      -2.57370081e-02 -3.31454985e-02 -2.28486699e-03 9.99717135e-03
      -3.67659354e-03 -2.26292312e-02 -2.56601768e-03 -3.04820221e-02
      -2.30303351e-02 -1.67545979e-03 -1.77508176e-04 1.57490876e-02
      -3.49106127e-03 1.58791449e-02 -5.32636791e-03 1.45507026e-02
      1.12189644e-03 -8.74264631e-03 -1.23524712e-02 -6.49534911e-02
      -4.24779132e-02 8.64945259e-03 -1.23083489e-02 6.77844137e-03
      4.08196356e-03 2.32394990e-02 2.10399460e-02 3.20474096e-02
      3.48715205e-03 1.47962580e-02 -3.47401872e-02 -8.45209172e-04
      -1.39600979e-02 6.70151901e-04 -4.05106228e-03 1.29407225e-03
      7.68197281e-03 1.02885207e-02 8.94902274e-03 -5.81248384e-03
      1.58555023e-02 -2.69679390e-02 7.86195602e-03 1.10533321e-02
      1.17574306e-02 2.25316565e-02 1.26071796e-02 7.30631873e-03
      1.42484736e-02 2.22592149e-02 -3.05586867e-02 -9.69650131e-03
      1.63612366e-02 2.38976572e-02 1.71031486e-02 4.50006174e-03
      1.61252376e-02 -5.47257215e-02 -3.19130644e-02 -4.49305624e-02
      -1.34003581e-02 1.43081220e-02 2.16811486e-02 3.80019695e-02
      1.44428657e-02 3.92110320e-03 -2.44397856e-02 -4.71048057e-02
      -5.64597324e-02 1.01419957e-02 2.34406199e-02 2.62087882e-02
      4.77099121e-02 9.50141437e-03 1.15059018e-02 2.96296775e-02
      1.03941476e-02 -6.72067106e-02 7.64206657e-03 1.06348554e-02
      1.69309806e-02 3.11226044e-02 1.55771160e-02 5.76225808e-03
      -2.96329585e-04 -6.29683025e-03 -4.47859429e-02 -2.07366757e-02
      2.63524312e-03 1.87120214e-02 4.14969586e-02 3.03892139e-02
      2.31148805e-02 5.18256100e-03 -4.48161960e-02 -4.14782539e-02
      -1.70331355e-02 1.33019025e-02 3.29956450e-02 4.87322472e-02
      2.35022120e-02 3.89874279e-02 -3.02963052e-02 -4.09311801e-02
      -4.38467935e-02 2.44813785e-03 1.70610938e-02 8.37137643e-03
      3.45223248e-02 5.75527456e-03 -8.61259364e-03 -1.40033429e-02
      8.78986716e-03 -2.86263321e-02 -4.13153740e-03 2.41714355e-04
      3.88735509e-03 4.60099010e-03 -2.09246073e-02 -1.58395357e-02
      9.44178645e-03 -2.71005277e-02 -5.67906424e-02 -2.07460150e-02
      4.49091420e-02 1.23411268e-02 7.29087219e-02 1.25357648e-02
      3.18181664e-02 -6.13766164e-03 -2.26302240e-02 -3.93564068e-02
      -4.09139395e-02 3.65155265e-02 3.35957878e-03 3.20562422e-02
      -4.78534587e-02 1.26975253e-02 1.45518696e-02 -3.58523079e-03
      7.17052165e-03 6.31997827e-03 -1.36973169e-02 2.00837422e-02
      -1.34501851e-03 -2.14394033e-02 -4.42061387e-02 1.59749687e-02
      -2.68167723e-03 5.89887798e-02 1.00467177e-02 2.14511566e-02
      -1.09596234e-02 -2.76823975e-02 -7.60188401e-02 -4.33817022e-02
      -2.16111280e-02 3.44856121e-02 -7.17304880e-03 1.07850842e-02
      2.18957737e-02 2.02937480e-02 3.00675407e-02 -4.99156490e-02
      8.75683781e-03 2.51209289e-02 -1.19900871e-02 -1.48825562e-02
      -2.10007522e-02 2.41827276e-02 4.28659432e-02 -2.09458582e-02
      -2.06465665e-02 -1.18854223e-02 1.33018857e-02 -1.64050814e-02
      1.01737166e-02 -9.25984001e-04 1.40379779e-02 9.75445285e-03
      1.14010340e-02 -2.03222800e-02 -3.14470530e-02 8.87479819e-03
      -2.24869270e-02 -8.79556034e-03 -2.76402663e-03 1.08037684e-02
      1.37252919e-02 1.00758988e-02 2.08542608e-02 1.26860123e-02
      -3.70890349e-02 -1.55875208e-02 -1.59467105e-02 -2.43499167e-02
      2.33742949e-02 -1.04165059e-02 -2.83528659e-02 3.02729812e-02
      3.49709019e-02 -5.15204808e-03 -7.74186896e-03 -1.55859590e-02
      2.68378225e-03 1.10274106e-02 1.86057556e-02 8.55465606e-03
      1.45213325e-02 1.74589455e-02 -2.56144591e-02 -1.97931752e-02
      -2.53693815e-02 9.35611024e-04 1.23467287e-02 2.18445975e-02
      1.40722562e-02 1.40857743e-02 2.22547520e-02 -2.71840412e-02
      -2.60376893e-02 -3.49526741e-02 -2.80051585e-03 -3.08691873e-03
      -3.74710606e-03 3.97419445e-02 1.43893985e-02 1.76122449e-02
      -3.77162849e-03 -2.45603807e-02 -1.44440159e-02 2.63850093e-02
      5.67546627e-03 1.93127040e-02 1.72182433e-02 2.01048125e-02
      2.67318115e-02 -7.58622540e-03 -2.73364484e-02 -1.53116025e-02
      1.43029653e-02 7.30601046e-03 -4.84507903e-03 3.47637609e-02
      -1.11392662e-02 4.47969465e-03 1.02114109e-02 -2.29364093e-02
      -2.24752463e-02 -1.11241755e-03 -3.73636279e-03 -4.41570301e-03
      1.93908885e-02 1.67729128e-02 1.44908009e-02 7.92825688e-03
      -2.19528768e-02 -1.62628088e-02 7.91458413e-03 1.81497447e-02
      1.41282221e-02 2.71204300e-02 1.52499983e-02 2.53379047e-02
      -2.83670630e-02 -1.79459155e-02 1.60206333e-02 -4.18519042e-03
      -1.78279367e-03 -1.64837856e-02 4.43349313e-03 -1.10008204e-02
      -3.51940468e-03 1.79386977e-02 -1.80187225e-02 2.51839515e-02
      2.03438639e-03 -1.21542966e-04 -4.83035902e-03 9.71004460e-03
      6.66320464e-03 9.22592357e-03 7.21028028e-03 -1.30140055e-02
      -3.55816819e-02 -2.01616492e-02 4.02397849e-02 1.44963143e-02
      4.81479205e-02 4.89575556e-03 1.27165532e-02 -1.96260102e-02
      -8.61136010e-04 -1.86695401e-02 -2.95276903e-02 1.78084373e-02
      1.63566100e-03 1.29494639e-02 3.49367745e-02 -1.14956098e-02
      2.45359121e-03 2.08394714e-02 -5.18266000e-02 1.43910246e-02
      1.52583793e-02 -4.07178828e-04 1.63862258e-02 3.51031567e-03
      6.42457977e-03 -6.00033533e-03 -3.63467890e-03 -3.61172818e-02
      4.95143607e-03 6.48474647e-03 4.82586212e-02 -3.77596612e-03
      8.16052109e-02 -1.52255530e-02 1.77064317e-03 -2.89185047e-02
      -1.06413029e-02 1.55086182e-02 1.59735400e-02 1.07793594e-02
      4.78069670e-03 1.61578413e-02 -1.40738776e-02 1.31241744e-02
      -1.51782967e-02 -1.01528065e-02 -7.87918828e-03 2.21902430e-02
      8.81655663e-02 -1.09142344e-02 -8.54822900e-03 1.35098239e-02
      1.46693792e-02 -1.48393158e-02 -7.68140657e-03 5.97793842e-04
      -4.41732304e-03 1.80566348e-02 -1.38650574e-02 5.48701361e-02
      -1.03039446e-03 1.38494102e-02 -8.41198210e-03 -2.27588154e-02
      6.50025951e-03 -1.06789649e-03 3.38342153e-02 -2.93010511e-02
      1.44069623e-02 2.72366535e-02 7.76943564e-03 -2.02157944e-02
      -1.22441426e-02 -3.47089618e-02 1.01647479e-02 -3.45328115e-02
      -6.71544224e-02 -5.77386748e-03 3.56731415e-02 -8.78902059e-03
      -1.07443780e-02 -2.04445492e-03 1.22079669e-04 2.95680389e-03
      1.12648625e-02 8.96230899e-03 1.88610312e-02 2.65578702e-02
      -3.26134451e-02 -9.33169574e-03 1.48713710e-02 -1.57445278e-02
      1.77486781e-02 -9.26342327e-03 -3.19097601e-02 -1.02956310e-01
      -5.86446039e-02 -7.59592727e-02 3.45295630e-02 2.04708762e-02
      7.67063815e-04 6.02870807e-03 9.87982098e-03 -3.25477304e-04
      -2.43711248e-02 1.85466418e-03 -3.95533442e-02 1.94506568e-03
      -3.98968086e-02 3.59515548e-02 -1.01657892e-02 7.65201729e-03
      7.46599585e-03 1.49617288e-02 2.34893486e-02 -2.48939451e-02
      -3.83476727e-02 -3.14800516e-02 -1.25192222e-03 8.22811946e-03
      1.90348749e-03 2.08731443e-02 3.86853004e-04 1.00821601e-02
      -3.75935598e-03 -3.44030298e-02 2.38346811e-02 2.42678095e-02
      7.70370802e-03 2.02514920e-02 1.64442975e-03 -5.36609627e-03
      -5.22305258e-03 -1.03075402e-02 -8.03092867e-03 -2.52959151e-02
      5.31070679e-03 1.87968574e-02 1.67753454e-02 8.35901499e-03
      6.47660438e-03 7.39874458e-03 -2.65047094e-03 -4.64075841e-02
      -2.71601193e-02 -2.05250140e-02 1.12134013e-02 3.97750846e-04
      -5.58641460e-03 -7.53615936e-03 -2.06206297e-03 -7.39337550e-03
      -3.04683298e-02 -2.42263619e-02 -2.55292822e-02 -3.71317752e-03
      -3.03973467e-03 1.13045238e-02 6.01663627e-03 2.02438072e-03
      -3.73809040e-02 -2.56712530e-02 2.80433334e-03 -1.29952608e-02
      2.05754228e-02 7.02626957e-03 3.53815965e-02 2.55844239e-02
      1.94047187e-02 -6.01267163e-03 -3.74579430e-02 -3.76898386e-02
      -2.46507730e-02 1.78581160e-02 1.92443728e-02 3.21005769e-02
      5.39894775e-03 1.01162940e-02 -2.78657824e-02 -3.82390805e-02
      -3.49543840e-02 2.41551828e-02 1.80223510e-02 8.42400454e-03
      4.12661470e-02 -3.40108830e-03 -2.41699792e-03 -2.57446487e-02
      2.83772033e-02 -3.57568599e-02 -5.98650239e-03 1.21615166e-02
      9.31803603e-03 -1.71549665e-03 -2.84114983e-02 -1.77971981e-02
      2.20024434e-04 -2.16495171e-02 -4.52763550e-02 -1.02846902e-02
      -7.61147076e-03 2.87184317e-04 2.04291455e-02 3.44243762e-03
      4.41814819e-03 -4.87524923e-03 4.33056662e-03 -4.32555601e-02
      -5.28354477e-03 -2.42336374e-02 -1.73175801e-02 6.45421352e-03
      -2.40085684e-02 -1.30822640e-02 6.40152441e-03 -7.84330349e-03
      -9.81807616e-03 5.19499928e-03 2.46467236e-02 2.56729443e-02
      2.65514036e-03 -1.89850572e-02 3.80229973e-03 1.44445887e-02
      -1.07112238e-02 -1.27693620e-02 1.13814687e-02 -8.34756251e-03
      8.93005927e-04 -2.97633521e-02 5.73072769e-02 3.71269882e-02
      6.36224169e-03 -1.24579333e-02 -2.77375504e-02 6.81379926e-04
      -2.31773388e-02 -2.14740783e-02 7.46161910e-03 -2.18437128e-02
      -6.91915071e-03 2.95455661e-03 -2.16786601e-02 1.02501344e-02
      -5.78605197e-03 -4.11890149e-02 -6.65170699e-02 -2.24792417e-02
      1.33956326e-02 7.88639951e-03 -3.21569480e-03 -3.13428901e-02
      1.64308082e-02 4.02978016e-03 7.91212264e-03 1.63859371e-02
      1.24418782e-02 -6.11146130e-02 -5.76931089e-02 -7.80361518e-02
      -1.23370448e-02 -3.60207516e-03 1.02728391e-02 1.19739398e-02
      1.32285571e-02 -9.44966543e-03 -5.68738133e-02 -3.05624958e-02
      -2.48853453e-02 4.18608962e-03 1.36836143e-02 7.09276740e-03
      5.07713901e-03 1.30150327e-02 2.81274039e-02 -4.15109470e-02
      -3.53449360e-02 -3.34682465e-02 -7.29960809e-03 -1.12767734e-01
      3.27367825e-03 4.66075353e-03 9.48890392e-03 -1.25730326e-02
      -4.58063222e-02 -5.10968566e-02 2.27199569e-02 -2.77442578e-02
      -3.73338275e-02 2.33180132e-02 4.18396965e-02 2.59390566e-02
      3.02276183e-02 -7.40796234e-03 -3.07846093e-03 1.41864968e-02
      3.27829607e-02 -3.38336341e-02 -1.78624652e-02 1.71048194e-02
      1.81229655e-02 4.42394502e-02 1.85771182e-03 6.60113897e-03
      -6.19837036e-03 -1.17267678e-02 -1.11812510e-01 -3.57725210e-02
      3.46381813e-02 -4.64991957e-04 1.79283042e-02 -4.61909780e-03
      -7.92386904e-02 2.76319720e-02 -9.65639576e-02 -1.52073741e-01
      -2.84577943e-02 9.21915099e-03 7.07882550e-03 3.08772083e-02
      4.78316192e-03 -2.83499993e-02 -5.38418144e-02 -1.48318067e-01
      3.71049601e-03 2.65997904e-03 6.31830562e-03 2.26671658e-02
      9.79838446e-02 4.51620072e-02 3.56345214e-02 -5.61895454e-03
      -2.01512519e-02 -2.50345897e-02 1.86147057e-02 5.64820739e-03
      2.08727140e-02 9.27598178e-02 1.29050296e-02 1.52104245e-02
      1.76266360e-03 -6.43998086e-02 -1.58247948e-01 -4.79225740e-02
      -3.35167833e-02 3.18580121e-02 6.18568547e-02 2.75364574e-02
      -1.73307750e-02 -5.54839708e-02 -1.33590281e-01 -1.56181812e-01
      -3.75882834e-02 -6.50299191e-02 2.55586929e-03 9.96642187e-02
      1.09416209e-02 -1.37637611e-02 -5.62217459e-02 -1.54369667e-01
      -8.46982060e-04 -4.95678000e-02 -1.94237716e-02 1.28895696e-02
      6.78991154e-02 1.18964268e-02 1.64900701e-02 -1.59685384e-03
      -5.38788028e-02 1.41818896e-02 1.54050975e-03 -4.33245562e-02
      1.19584461e-03 2.07487121e-02 2.04209425e-02 2.00624187e-02
      -2.41049146e-03 1.85318738e-02 -1.54005930e-01 -7.83976316e-02
      -4.52840291e-02 6.06692350e-03 4.33779992e-02 7.10257376e-03
      -1.31787620e-02 -6.96338937e-02 -1.67730421e-01 -7.53921717e-02
      -3.69892828e-02 -5.66710383e-02 -2.94671347e-03 8.81449357e-02
      1.92150082e-02 8.72188620e-03 -8.37518945e-02 -9.89993811e-02
      4.61856872e-02 4.14175652e-02 -3.78008671e-02 -3.00478414e-02
      -6.93166512e-05 1.49671054e-02 5.56566985e-03 -1.71985216e-02
      3.81160043e-02 8.69670883e-02 1.46980267e-02 -3.71563584e-02
      -1.12039216e-01 1.75964031e-02 8.94812960e-03 3.41896228e-02
      -2.79106479e-02 2.58428045e-02 -4.11891658e-03 -2.73104142e-02
      -7.11206496e-02 -4.67993654e-02 5.30740106e-03 1.85298212e-02
      6.93350472e-03 -4.16572951e-02 -3.44570838e-02 1.12232473e-02
      -2.09481884e-02 -6.41043708e-02 -8.22475180e-02 -8.25437810e-03
      5.03260782e-03 2.20860518e-03 -3.38151008e-02 2.02676132e-02</_></support_vectors>
  <uncompressed_sv_total>94</uncompressed_sv_total>
  <uncompressed_support_vectors>
    <_>
      0. 0. 0. 0. 0. 0. 0. 0. 0. 0. 0. 0. 0. 0. 0. 0. 0. 0. 0. 0. 0. 0.
      0. 0. 0. 0. 0. 0. 0. 0. 0. 0. 0. 0. 0. 0. 0. 0. 0. 0. 0. 0. 0. 0.
      0. 0. 0. 0. 0. 0. 0. 0. 0. 0. 0. 0. 0. 0. 0. 0. 0. 0. 0. 0. 0. 0.
      0. 0. 0. 0. 0. 0. 0. 0. 0. 0. 0. 0. 0. 0. 0. 0. 0. 0. 0.
      7.04615593e-01 0. 0. 0. 0. 0. 0. 0. 0. 0. 0. 0. 0. 0. 0. 0. 0. 0.
      7.04615593e-01 0. 0. 0. 0. 7.68268947e-03 4.16502655e-02
      5.03449887e-02 3.25662307e-02 3.96794289e-01 1.22963078e-01
      1.05265543e-01 4.62313043e-03 2.07245583e-03 8.27615336e-02
      1.19584993e-01 1.72799304e-01 8.01175013e-02 3.96794289e-01
      1.94860175e-01 1.83760226e-01 2.99095754e-02 6.96158782e-02
      4.62036951e-05 0. 1.03620738e-02 6.48954958e-02 3.96794289e-01
      1.29095927e-01 7.89937973e-02 3.59014818e-03 4.62036951e-05
      3.30457836e-02 2.26599537e-02 1.87206939e-01 2.29356572e-01
      3.96794289e-01 2.38190919e-01 1.53977662e-01 3.71673033e-02
      3.75606120e-02 1.78083256e-01 1.49094462e-01 1.50706381e-01
      4.54467684e-02 2.59473264e-01 4.48657908e-02 1.44060537e-01
      9.72755402e-02 1.66959688e-01 2.69624740e-01 2.31781572e-01
      1.23037353e-01 5.81085915e-03 1.66538969e-01 7.62151629e-02
      1.66862220e-01 1.63243353e-01 2.59630919e-01 1.43257871e-01
      1.41150460e-01 2.09190443e-01 1.24772266e-01 2.71022439e-01
      6.35164380e-02 1.33638084e-01 1.05512708e-01 1.15255356e-01
      1.87585711e-01 2.37070382e-01 1.17268614e-01 4.23353985e-02
      2.71022439e-01 1.52949840e-01 2.10422978e-01 1.07864812e-01
      1.21949531e-01 6.08543567e-02 3.94935273e-02 1.11016184e-02
      6.87104010e-04 1.50824955e-03 5.13567962e-03 1.58973783e-02
      3.11881993e-02 4.79452126e-02 7.84625188e-02 3.71040665e-02
      1.47564197e-02 4.60354204e-04 1.77191338e-03 7.18204584e-03
      1.41327456e-02 3.41746248e-02 5.11498116e-02 2.81583071e-01
      2.81583071e-01 2.81583071e-01 8.42251927e-02 8.76485631e-02
      1.26997024e-01 2.81583071e-01 2.81583071e-01 2.81583071e-01
      2.81583071e-01 2.81583071e-01 2.81583071e-01 6.01257011e-02
      6.30798712e-02 1.15723960e-01 2.28882253e-01 2.81583071e-01
      2.81583071e-01 6.05850518e-02 2.34451853e-02 1.01373913e-02
      2.79829139e-04 1.11793890e-03 2.01892550e-03 1.69751476e-02
      2.73779072e-02 4.04918715e-02 7.48011544e-02 5.16677685e-02
      1.35069396e-02 9.94011643e-04 1.65380177e-03 0. 1.78072061e-02
      2.03810390e-02 5.50212115e-02 2.94176698e-01 2.94176698e-01
      2.29483664e-01 3.77330817e-02 1.44380461e-02 5.05703315e-02
      2.76239395e-01 2.94176698e-01 2.94176698e-01 2.94176698e-01
      2.94176698e-01 2.94176698e-01 4.95811459e-03 9.15278867e-03
      6.48206994e-02 2.48019919e-01 2.94176698e-01 2.94176698e-01
      5.69295995e-02 4.63008210e-02 6.96315244e-03 6.71103422e-04
      9.65289597e-04 0. 3.19739506e-02 2.13531684e-02 6.19272888e-02
      5.48689738e-02 3.06734424e-02 9.11578070e-03 5.45190554e-03
      7.67586241e-03 0. 2.27694400e-02 2.23464388e-02 5.07262610e-02
      2.99187869e-01 2.99187869e-01 1.44620284e-01 6.42385287e-03
      8.76647513e-03 1.51915690e-02 2.99187869e-01 2.99187869e-01
      2.99187869e-01 2.99187869e-01 2.99187869e-01 1.42437547e-01
      1.82094425e-01 9.32260752e-02 3.53860343e-03 2.99187869e-01
      2.99187869e-01 2.99187869e-01 2.23920699e-02 1.14205005e-02
      2.32348721e-02 7.30982423e-02 4.50042307e-01 1.99784450e-02
      7.47674471e-03 1.19961295e-02 1.78042036e-02 5.80965076e-03
      7.34883966e-03 5.46980910e-02 1.68631256e-01 4.50042307e-01
      6.61659241e-02 9.22100246e-03 9.28485859e-03 6.96856808e-03
      1.43425167e-01 1.52813286e-01 1.78230792e-01 1.69892237e-01
      3.31756890e-01 4.12572594e-03 1.05333842e-01 1.62343100e-01
      1.58522874e-01 3.84373218e-02 4.39059362e-02 1.52754381e-01
      1.75345197e-01 4.50042307e-01 5.85435815e-02 2.95239296e-02
      5.42906485e-02 4.90120910e-02 2.68174149e-02 2.57209800e-02
      5.23692146e-02 1.10964835e-01 4.82791007e-01 5.72602451e-02
      1.36523303e-02 2.20841486e-02 1.97776053e-02 3.43254246e-02
      3.38760652e-02 1.04592377e-02 9.48866010e-02 4.82791007e-01
      8.93438160e-02 4.37730402e-02 1.52900517e-02 1.66509394e-02
      1.34541930e-04 5.31559635e-04 3.24391164e-02 9.83751118e-02
      4.82791007e-01 8.59287456e-02 3.84475035e-03 1.30479079e-04
      1.98691516e-04 3.58153461e-03 8.08161509e-04 2.41832715e-03
      4.15588245e-02 4.82791007e-01 1.76310875e-02 1.14797172e-03
      3.14125966e-04 3.60737159e-03 2.28217229e-01 2.28217229e-01
      2.07835719e-01 8.20206106e-02 1.04443192e-01 8.96073803e-02
      1.78005219e-01 1.53634131e-01 2.28217229e-01 2.28217229e-01
      2.28217229e-01 2.18050942e-01 5.16825989e-02 6.37652129e-02
      7.95796514e-02 1.42707020e-01 2.28217229e-01 2.28217229e-01
      2.28217229e-01 1.88043982e-01 1.45371050e-01 3.56187075e-02
      1.06990181e-01 4.57808450e-02 1.92556515e-01 9.17434692e-02
      2.28217229e-01 2.28217229e-01 2.06080139e-01 1.29255354e-01
      9.45470855e-03 9.95369479e-02 6.64746836e-02 1.49416655e-01
      8.34051892e-02 2.28217229e-01 2.39167258e-01 2.39167258e-01
      1.59373179e-01 3.48879173e-02 1.33469766e-02 4.20849174e-02
      1.85489252e-01 2.39167258e-01 2.39167258e-01 2.39167258e-01
      2.39167258e-01 2.06143022e-01 3.11765401e-03 6.85602520e-03
      6.09318055e-02 1.55017257e-01 2.09518269e-01 2.39167258e-01
      2.39167258e-01 2.15889007e-01 1.43840432e-01 2.59159878e-03
      8.13374743e-02 1.00790285e-01 7.71579370e-02 5.82793839e-02
      2.37835497e-01 2.39167258e-01 2.26603433e-01 1.04397379e-01
      1.06353303e-02 6.17893040e-02 1.13300689e-01 1.07493468e-01
      8.87086317e-02 2.39167258e-01 2.29866326e-01 2.36821875e-01
      9.38709602e-02 3.68323061e-03 5.56987990e-03 1.41501483e-02
      2.36821875e-01 2.36821875e-01 2.36821875e-01 2.36821875e-01
      2.36821875e-01 8.04807544e-02 1.37572408e-01 7.10144565e-02
      6.01413473e-03 2.36821875e-01 2.36821875e-01 2.36821875e-01
      2.36821875e-01 2.02780291e-01 1.25853226e-01 1.62213854e-02
      2.89715435e-02 8.18922967e-02 7.78272897e-02 5.70785478e-02
      2.09167942e-01 2.36821875e-01 2.36821875e-01 1.12375751e-01
      1.12922024e-02 2.42563598e-02 6.34291545e-02 1.66342497e-01
      1.15258522e-01 2.36821875e-01 1.76405892e-01 1.73742458e-01
      1.73245549e-01 1.66857004e-01 1.68457344e-01 5.46115078e-03
      1.33859977e-01 1.96510628e-01 2.04171881e-01 5.61229661e-02
      4.70816903e-02 1.53159082e-01 1.89874530e-01 4.08171386e-01
      1.90396085e-01 4.53381985e-02 6.19786233e-02 6.94587380e-02
      1.23925433e-01 1.69921651e-01 9.18562934e-02 9.47411824e-03
      1.00965671e-01 3.40606757e-02 1.69222042e-01 8.42700377e-02
      1.66348904e-01 3.96046489e-02 5.50317802e-02 5.94230369e-02
      2.51958370e-01 4.08171386e-01 2.92738140e-01 1.22099914e-01
      2.94220578e-02 6.68863952e-02 2.85201502e-04 6.82042679e-04
      2.89103054e-02 1.15731686e-01 4.52171713e-01 1.80935472e-01
      1.67130306e-02 2.82080757e-04 5.38597116e-04 1.24352518e-02
      6.66811597e-04 2.60750670e-03 1.24966092e-02 4.52171713e-01
      1.99444611e-02 2.58116587e-03 3.78058263e-04 1.18087986e-02
      4.37531155e-04 1.77420647e-04 2.96480302e-02 2.38015324e-01
      4.52171713e-01 2.58431077e-01 3.18558030e-02 2.22613034e-03
      5.41182642e-04 2.55919769e-02 3.90407105e-04 2.73029436e-03
      2.98287589e-02 4.52171713e-01 4.53632362e-02 2.07644328e-03
      9.42867133e-04 2.41721347e-02 2.60088921e-01 2.60088921e-01
      2.58750975e-01 2.88732965e-02 1.47790045e-01 9.41329524e-02
      2.60088921e-01 1.53592438e-01 2.60088921e-01 2.60088921e-01
      2.60088921e-01 2.49494821e-01 9.04093683e-03 1.65085837e-01
      1.53598711e-01 2.60088921e-01 1.37884572e-01 2.60088921e-01
      1.45801127e-01 1.55376494e-01 8.14372376e-02 4.58988920e-03
      5.11164293e-02 3.78842950e-02 5.68009354e-02 4.90402617e-02
      1.11162506e-01 1.93936214e-01 1.91637084e-01 8.42767507e-02
      4.13469039e-03 6.31980821e-02 6.39917031e-02 1.16203442e-01
      3.46725285e-02 1.53703153e-01 2.63266861e-01 2.63266861e-01
      2.63266861e-01 1.50556455e-03 1.22936830e-01 1.84908003e-01
      1.61193609e-01 7.96364769e-02 2.63266861e-01 2.63266861e-01
      2.63266861e-01 1.91618010e-01 1.54494625e-02 1.13913573e-01
      2.04756409e-01 2.53744870e-01 1.31729245e-01 2.63266861e-01
      1.71656281e-01 1.88578129e-01 9.66365784e-02 1.93572580e-03
      4.34236079e-02 6.36243299e-02 6.88170269e-02 1.98662523e-02
      1.36555865e-01 2.08490998e-01 2.10491732e-01 6.95526153e-02
      4.02797805e-03 5.67861497e-02 6.99636713e-02 1.14427030e-01
      3.28111313e-02 1.94868997e-01 2.67539710e-01 2.67539710e-01
      2.55795449e-01 2.64363661e-02 5.36369495e-02 1.46660626e-01
      1.76266447e-01 9.66076776e-02 2.67539710e-01 2.67539710e-01
      2.67539710e-01 2.41173178e-01 7.33355107e-03 2.87093539e-02
      1.18175283e-01 2.67539710e-01 1.92831904e-01 2.67539710e-01
      1.84959203e-01 2.17809305e-01 9.03760269e-02 6.44315872e-03
      2.59025116e-02 4.39066067e-02 7.74359405e-02 3.20402980e-02
      1.69510111e-01 1.72870353e-01 1.86124071e-01 9.00934711e-02
      2.44576694e-03 1.26300724e-02 4.35526893e-02 1.40263975e-01
      6.30825981e-02 1.69109687e-01 1.18511863e-01 2.07001582e-01
      1.34370714e-01 6.60221558e-03 1.95380017e-01 7.62538984e-02
      2.53356218e-01 9.55702737e-02 1.46688133e-01 2.69499272e-02
      6.33364320e-02 5.40536158e-02 1.47575527e-01 4.32129115e-01
      2.12907031e-01 1.68356866e-01 3.83842252e-02 5.16525544e-02
      5.97551651e-02 7.62911960e-02 5.50216176e-02 3.49141918e-02
      4.32129115e-01 6.67565241e-02 1.12738200e-01 3.22365277e-02
      5.28872237e-02 8.76786467e-03 2.14850046e-02 2.34128926e-02
      1.95088327e-01 4.32129115e-01 1.84913173e-01 7.79030547e-02
      1.49912750e-02 1.13534238e-02 2.84509821e-04 7.34930472e-06
      1.90384872e-02 2.08141759e-01 4.47609484e-01 2.11336806e-01
      4.02468182e-02 5.37060667e-03 2.73157435e-04 2.33759582e-02
      1.10239562e-04 1.45545055e-03 5.90915158e-02 4.47609484e-01
      6.69851378e-02 1.37643679e-03 8.49570555e-04 2.36965213e-02
      3.11740744e-03 0. 9.49139427e-03 2.07560599e-01 4.47609484e-01
      1.57927617e-01 1.62532330e-02 2.45009363e-03 2.86578597e-03
      2.04602070e-02 0. 1.12277390e-02 8.06014240e-02 4.47609484e-01
      1.36675328e-01 2.28079967e-02 3.52235307e-04 1.95024088e-02
      4.15962368e-01 4.81494740e-02 1.37288859e-02 8.72226879e-02
      2.01183558e-01 0. 1.41357286e-02 4.99390550e-02 3.90275478e-01
      5.09500802e-01 9.66046378e-02 1.09031238e-01 1.20600961e-01
      2.04245955e-01 3.85584347e-02 6.12548217e-02 1.19943604e-01
      5.09500802e-01 0. 0. 0. 0. 0. 0. 0. 0. 0. 0. 0. 0. 0. 0. 0. 0. 0.
      0. 4.77557391e-01 5.19573651e-02 7.62964785e-02 4.92808223e-02
      9.25428271e-02 2.96022873e-02 5.42749166e-02 3.51777747e-02
      4.77557391e-01 4.77557391e-01 1.83104686e-02 4.95130755e-02
      1.43570164e-02 2.30008483e-01 1.97348557e-03 4.75388952e-02
      1.58866718e-02 4.77557391e-01 0. 0. 0. 0. 0. 0. 0. 0. 0. 0. 0. 0.
      0. 0. 0. 0. 0. 0. 2.72389382e-01 2.77797761e-03 8.31273664e-03 0.
      7.42389336e-02 0. 1.51427314e-02 5.06043527e-03 2.72389382e-01
      2.17706025e-01 1.14018442e-02 3.41185369e-02 0. 4.51173782e-01
      4.60762391e-03 3.92340049e-02 1.23585388e-02 2.17706025e-01 0. 0.
      0. 0. 0. 0. 0. 0. 0. 0. 0. 0. 0. 7.32866108e-01 0. 0. 0. 0.
      1.50186301e-03 7.46667865e-05 3.22616361e-02 3.95109616e-02
      4.43604797e-01 1.58324819e-02 3.02265049e-04 1.65634061e-04
      1.52392720e-03 1.95173677e-02 1.38093606e-02 4.37682346e-02
      1.26246318e-01 4.43604797e-01 7.32994080e-02 1.11769252e-01
      2.30963398e-02 1.83679760e-02 1.01658516e-04 7.47275553e-05
      9.37150642e-02 5.83304018e-02 4.43604797e-01 1.29297182e-01
      3.76313403e-02 1.43493380e-04 1.18641248e-04 6.40672371e-02
      4.00037915e-02 1.26860976e-01 9.05965045e-02 4.43604797e-01
      2.14408830e-01 2.35618219e-01 4.71700579e-02 6.61218613e-02
      1.11963682e-01 1.11972556e-01 2.20496859e-02 7.26313889e-02
      2.78029412e-01 5.34084402e-02 1.42001316e-01 4.18694839e-02
      6.11720458e-02 1.55430317e-01 1.34596393e-01 6.11410663e-02
      1.31014034e-01 2.78029412e-01 9.31584910e-02 8.16041604e-02
      1.05967425e-01 1.04786195e-01 2.68607199e-01 2.46608272e-01
      5.36052920e-02 2.36597210e-02 2.78029412e-01 6.85817897e-02
      2.58029312e-01 7.87688047e-02 1.72342002e-01 2.78029412e-01
      2.78029412e-01 9.68983546e-02 1.11388743e-01 2.33739123e-01
      1.51892724e-02 1.28365710e-01 1.91365659e-01 2.78029412e-01</_>
    <_>
      2.20538393e-01 1.24825150e-01 1.76482558e-01 1.12783901e-01
      1.24407835e-01 7.12803332e-03 5.19677028e-02 5.15655316e-02
      3.00986141e-01 1.54600412e-01 6.71945065e-02 1.71312600e-01
      1.73553616e-01 3.14624757e-01 1.08196311e-01 1.44360602e-01
      3.93396802e-02 2.03999773e-01 1.85925499e-01 5.84591255e-02
      2.28050232e-01 1.02026902e-01 3.14624757e-01 2.24799756e-02
      5.53045347e-02 6.01370111e-02 2.81913519e-01 1.12316698e-01
      5.26286922e-02 1.58810765e-01 1.04532808e-01 3.14624757e-01
      1.50488958e-01 1.45006031e-01 3.51614654e-02 1.82288110e-01
      4.61892486e-02 1.03435023e-02 4.45797518e-02 2.82090962e-01
      4.37763274e-01 8.72680470e-02 1.02362804e-01 1.90210752e-02
      4.41921875e-02 1.15967228e-03 1.12501848e-05 4.92411479e-03
      1.69190407e-01 4.37763274e-01 1.09821046e-02 6.18081959e-03
      7.70361730e-05 1.06463290e-03 1.49124349e-02 9.36102867e-03
      3.70158739e-02 1.19394742e-01 4.37763274e-01 2.37752333e-01
      1.05444051e-01 1.50087420e-02 1.48624163e-02 1.79783884e-03
      5.87323157e-04 1.51072908e-03 5.88598847e-02 4.37763274e-01
      9.24394354e-02 3.21703125e-03 9.33458796e-04 2.24959012e-03
      1.21152017e-03 0. 0. 0. 4.36452717e-01 0. 2.27155964e-04
      7.59117247e-05 1.21152017e-03 1.31038157e-03 0. 0. 0. 0. 0. 0. 0.
      1.31038157e-03 2.18614042e-01 1.98888928e-02 2.35545989e-02
      1.34351198e-02 1.66385740e-01 8.19615647e-03 2.45414097e-02
      1.28734251e-02 1.32043958e-01 4.65734869e-01 4.35465015e-02
      4.34531778e-01 2.14186609e-01 1.96447626e-01 0. 2.95856707e-02
      9.88703780e-03 4.65734869e-01 2.32724633e-04 0. 0. 0. 0. 0. 0. 0.
      2.32724633e-04 2.84596905e-03 2.39786223e-05 0. 0. 0. 0. 0. 0.
      1.94760540e-03 3.37728620e-01 6.49709105e-02 1.77603677e-01
      1.41022086e-01 9.31010991e-02 0. 1.10910041e-02 5.47135174e-02
      3.37728620e-01 3.37728620e-01 3.37728620e-01 3.37728620e-01
      3.37728620e-01 2.45941326e-01 3.80633399e-02 1.39890909e-01
      2.21918687e-01 3.37728620e-01 8.81072227e-03 3.25297224e-05 0. 0.
      0. 0. 0. 1.07550022e-05 8.41408037e-03 1.73213631e-02
      1.47862374e-05 0. 0. 0. 0. 0. 2.36610049e-05 1.79659035e-02
      3.04560095e-01 3.04560095e-01 3.04560095e-01 1.57628804e-01
      1.28425092e-01 8.42637345e-02 1.11509182e-01 2.13860765e-01
      3.04560095e-01 3.04560095e-01 2.75441647e-01 3.04560095e-01
      1.06144525e-01 1.74616873e-01 1.37927398e-01 1.81085661e-01
      2.66148239e-01 3.04560095e-01 4.78139669e-02 1.03313262e-02
      7.23738968e-02 6.43971860e-02 4.63783711e-01 5.15468270e-02
      7.91848917e-03 1.06269410e-02 6.71161488e-02 2.77317353e-02
      7.36741349e-03 1.84239931e-02 2.61032209e-02 4.63783711e-01
      1.94711402e-01 1.84387609e-01 2.57512531e-03 4.20072414e-02
      1.48659032e-02 9.05612433e-06 2.29690428e-04 4.44018655e-02
      4.63783711e-01 3.05115581e-02 0. 1.63918972e-04 1.48998694e-02
      3.46858105e-05 2.08987490e-06 1.97597565e-05 7.90340081e-02
      4.63783711e-01 1.09795779e-01 1.36738300e-01 3.14356948e-05
      3.69501940e-05 1.08985752e-02 7.82945938e-03 1.91867780e-02
      3.72327156e-02 3.70367289e-01 2.31217355e-01 1.77079335e-01
      4.66787536e-03 1.33448597e-02 1.06249243e-01 3.29070836e-02
      6.12765700e-02 4.30963486e-02 3.70367289e-01 1.11521073e-01
      9.16164517e-02 4.63834405e-02 1.16410851e-01 4.21840958e-02
      4.05407287e-02 5.36719523e-02 8.34516808e-02 3.70367289e-01
      1.48841336e-01 2.19185814e-01 1.43019008e-02 5.23203723e-02
      2.24861860e-01 1.35846004e-01 1.76940069e-01 7.79118836e-02
      3.70367289e-01 9.57161710e-02 1.90017045e-01 1.06933266e-01
      2.37987220e-01 2.61286139e-01 7.74062574e-02 9.92991626e-02
      3.43474820e-02 4.63482998e-02 1.03153996e-02 3.72919403e-02
      8.91476944e-02 2.24294111e-01 2.67695606e-01 9.09056440e-02
      2.47514591e-01 9.01991352e-02 5.23556732e-02 5.65315550e-03
      9.06366110e-03 7.87903517e-02 2.67695606e-01 2.67695606e-01
      2.15508193e-01 2.28123367e-01 6.58487380e-02 1.59090534e-01
      3.92259657e-02 1.03249803e-01 1.96666911e-01 2.67695606e-01
      2.67695606e-01 1.87013492e-01 2.67695606e-01 1.18315205e-01
      1.15164228e-01 2.46325731e-02 3.13710123e-02 1.37609005e-01
      2.67695606e-01 2.67649174e-01 5.53355701e-02 2.32779011e-01
      1.33312032e-01 9.11863670e-02 0. 1.14226006e-02 1.05172999e-01
      2.67649174e-01 2.67649174e-01 1.37538850e-01 2.18154207e-01
      2.39363000e-01 1.99423939e-01 2.57721264e-02 1.00322679e-01
      1.48642406e-01 2.67649174e-01 2.67649174e-01 5.37993051e-02
      2.15804979e-01 9.83242467e-02 8.81794319e-02 0. 9.18157306e-03
      1.05654165e-01 2.67649174e-01 2.67649174e-01 3.33194546e-02
      1.01629369e-01 1.11452371e-01 1.45799115e-01 1.18548321e-02
      5.05260564e-02 8.57083201e-02 2.67649174e-01 2.52073467e-01
      1.96716204e-01 2.52073467e-01 1.88390926e-01 2.19814494e-01
      7.89100900e-02 1.31114572e-01 1.45114213e-01 2.52073467e-01
      2.52073467e-01 1.57526299e-01 2.52073467e-01 1.14943735e-01
      2.52073467e-01 1.16942048e-01 1.56382605e-01 1.39701635e-01
      2.52073467e-01 1.89490288e-01 3.59816775e-02 7.99230263e-02
      8.20351467e-02 1.47860363e-01 2.37915162e-02 5.27356341e-02
      2.95966920e-02 2.02668428e-01 2.52073467e-01 4.37086336e-02
      1.28489658e-01 7.00255632e-02 1.39775738e-01 3.07618212e-02
      3.93172167e-02 1.10842492e-02 2.52073467e-01 8.97482317e-03 0.
      4.65149678e-05 1.09923976e-02 4.71073300e-01 6.59348890e-02
      1.06605761e-01 0. 8.97482317e-03 1.16927004e-05 0. 3.10099790e-06
      1.14212550e-01 4.71073300e-01 1.37279900e-02 7.92188663e-03 0.
      1.16927004e-05 1.88553275e-03 0. 2.93911671e-05 8.68912973e-03
      4.71073300e-01 9.73882973e-02 1.73494279e-01 0. 1.88553275e-03
      1.29602195e-04 0. 4.40867501e-04 1.08947791e-01 4.71073300e-01
      1.61681533e-01 2.62083132e-02 0. 1.29602195e-04 4.02123258e-02
      2.94451285e-02 2.62481067e-02 1.16818644e-01 3.83216977e-01
      3.80643681e-02 5.72623424e-02 7.25183403e-03 4.88117449e-02
      1.31399497e-01 9.03666690e-02 8.24778229e-02 4.06178385e-02
      2.63794601e-01 3.64895500e-02 7.24967793e-02 4.11490239e-02
      1.46119073e-01 6.28509969e-02 1.13005971e-03 9.38571990e-02
      2.37337932e-01 3.83216977e-01 1.59918860e-01 3.98711823e-02
      1.81235392e-02 6.42903075e-02 3.09199333e-01 1.05743714e-01
      2.00680509e-01 2.96208799e-01 2.37138376e-01 6.52172938e-02
      6.96776733e-02 8.92253518e-02 3.69536757e-01 1.79333881e-01
      9.20864716e-02 7.79763684e-02 3.61835733e-02 8.07008073e-02
      1.66165419e-02 3.20218317e-02 5.34955077e-02 2.01147512e-01
      2.12240905e-01 1.13984577e-01 1.09018408e-01 7.80854821e-02
      7.87454769e-02 9.40291677e-03 4.89183888e-02 5.68682402e-02
      2.88421690e-01 2.91466743e-01 2.91466743e-01 1.64622411e-01
      2.68657863e-01 5.69127910e-02 2.30534207e-02 2.82374602e-02
      7.58771449e-02 2.91466743e-01 2.91466743e-01 2.91466743e-01
      1.41615346e-01 2.56011486e-01 7.46462122e-02 9.28993813e-06
      8.98418501e-02 9.07540396e-02 2.91466743e-01 1.87084109e-01
      6.45314977e-02 1.52743846e-01 5.55620939e-02 5.66139296e-02 0.
      1.13105126e-01 5.43542951e-02 2.05638692e-01 2.54794687e-01
      1.24767132e-01 1.98299289e-01 1.60776973e-02 4.90898117e-02
      2.24003757e-04 1.26890510e-01 6.28207698e-02 2.58541524e-01
      2.58541524e-01 1.93421990e-01 2.58541524e-01 1.42746255e-01
      9.03470069e-02 0. 2.54510134e-01 1.16451085e-01 2.58541524e-01
      2.58541524e-01 2.11780861e-01 2.58541524e-01 5.21793850e-02
      6.22151345e-02 5.16931759e-05 2.12631598e-01 1.38629898e-01
      2.58541524e-01 2.79127479e-01 2.17208937e-01 1.50683478e-01
      2.56512742e-02 2.58219875e-02 6.26701338e-04 3.28482352e-02
      1.84862912e-02 2.79127479e-01 2.79127479e-01 1.86206535e-01
      2.47083426e-01 9.80803519e-02 2.89261770e-02 1.34197390e-03
      7.03615951e-04 1.88596299e-04 2.79127479e-01 2.79127479e-01
      2.79127479e-01 2.00519472e-01 2.71653589e-02 2.07880847e-02
      1.44623380e-04 4.11324538e-02 3.94727439e-02 2.79127479e-01
      2.79127479e-01 1.93806052e-01 1.72456801e-01 7.07988814e-02
      1.56660024e-02 1.36211878e-04 3.85157473e-05 2.13130215e-06
      2.79127479e-01 1.97668793e-04 1.46241910e-05 7.14119960e-05
      1.01115759e-02 4.83837456e-01 1.88368820e-02 2.78969668e-02
      1.02547701e-05 1.94638473e-04 6.46596716e-04 2.19362890e-04
      1.07117998e-03 4.34087366e-02 4.83837456e-01 2.02050880e-01
      3.86369638e-02 4.66125948e-06 6.01142179e-04 1.02216704e-03
      6.33714953e-05 3.67218090e-05 9.86263342e-03 4.83837456e-01
      1.26549955e-02 8.34163046e-04 3.29018279e-04 1.01944921e-03
      1.71352853e-03 9.50572488e-04 6.45073829e-04 1.34634627e-02
      4.83837456e-01 1.07591547e-01 3.61719094e-02 8.52580415e-04
      1.67276070e-03 3.44760641e-02 2.60932400e-04 1.00757107e-01
      1.63356826e-01 4.17989016e-01 1.49965361e-01 3.66102569e-02
      1.20235970e-02 3.43117937e-02 1.98470935e-01 5.21786921e-02
      1.81047708e-01 2.26039782e-01 3.90914828e-01 3.83760706e-02
      4.51576449e-02 5.59959300e-02 2.20637113e-01 3.64183984e-03
      4.49334009e-04 2.64853705e-02 5.53867184e-02 4.17989016e-01
      2.04762056e-01 4.32652012e-02 1.19081896e-03 3.66850081e-03
      2.53273230e-02 1.78980408e-03 3.70839611e-02 5.74397147e-02
      4.17989016e-01 1.42643079e-01 1.83183495e-02 3.71029042e-03
      2.75949836e-02 3.29258144e-01 3.29258144e-01 2.94094205e-01
      3.29258144e-01 1.16513185e-01 3.08907870e-02 5.64980395e-02
      1.12611055e-01 3.29258144e-01 3.29258144e-01 3.29258144e-01
      1.08584002e-01 2.46441230e-01 4.32523489e-02 0. 5.02688624e-02
      6.58663884e-02 3.29258144e-01 6.40661716e-02 6.05348172e-03
      2.81471014e-02 3.05416677e-02 1.65942296e-01 3.65414396e-02
      7.91984331e-03 4.78740362e-03 6.80697337e-02 1.04913479e-02
      4.84435499e-04 1.05345040e-03 3.02275456e-03 3.39057937e-04 0. 0.
      9.82171769e-05 1.00746453e-02 3.15284491e-01 3.15284491e-01
      3.15284491e-01 2.14468360e-01 1.19537093e-01 0. 3.09340656e-01
      1.62224665e-01 3.15284491e-01 3.15284491e-01 1.97779745e-01
      3.15284491e-01 8.55597928e-02 6.52634874e-02 0. 2.04173625e-01
      1.62217453e-01 3.15284491e-01 3.50558176e-03 2.20353628e-04
      4.41446464e-04 0. 4.58744529e-04 0. 0. 2.10629325e-04
      2.72228452e-03 2.01498787e-03 3.65832617e-04 8.14507192e-04 0.
      8.67559982e-04 0. 0. 1.40419543e-05 1.16064993e-03 3.85679185e-01
      3.85679185e-01 3.85679185e-01 5.63288629e-02 4.61966619e-02 0.
      8.08876082e-02 1.27439365e-01 3.85679185e-01 3.85679185e-01
      2.58693069e-01 8.00404772e-02 6.85875043e-02 2.28127148e-02 0. 0.
      0. 3.81724924e-01 3.47210583e-03 5.16898930e-04 1.42934138e-03 0.
      2.55983393e-03 0. 0. 0. 3.31699150e-03 2.37823185e-03
      1.83867014e-04 5.50198776e-04 0. 1.86767336e-03 0. 0. 0.
      2.37823185e-03 4.14830819e-02 4.88024056e-02 2.88483389e-02
      4.22873087e-02 2.99510032e-01 9.57389325e-02 7.35035688e-02
      2.02937182e-02 6.08393662e-02 8.96722153e-02 6.56956583e-02
      5.84844686e-02 8.19513351e-02 2.99510032e-01 1.09917313e-01
      8.32528695e-02 5.92642799e-02 1.51632294e-01 1.21259943e-01
      2.51583278e-01 1.75790116e-01 1.14402369e-01 2.99510032e-01
      1.66335329e-01 2.15587378e-01 1.14103734e-01 1.54148206e-01
      2.22457752e-01 2.55750090e-01 2.14165673e-01 1.75015032e-01
      2.35730559e-01 1.51676148e-01 1.05086483e-01 1.75615862e-01
      2.99510032e-01 2.52494588e-02 2.08055433e-02 5.35899103e-02
      7.29511306e-02 3.41064334e-01 3.09530765e-01 1.79963246e-01
      2.73676589e-02 4.03823517e-02 6.10135961e-04 1.30753522e-03
      1.23194503e-02 2.33142804e-02 3.41064334e-01 2.55706102e-01
      1.36750177e-01 2.10900471e-04 4.22863028e-04 9.80921015e-02
      7.05120862e-02 1.62804067e-01 1.58615321e-01 3.41064334e-01
      2.61290610e-01 1.94031507e-01 7.20469281e-02 9.19099599e-02
      4.89667896e-03 6.41522696e-03 6.53757527e-02 1.25263900e-01
      3.41064334e-01 2.45924994e-01 2.00848639e-01 1.43986937e-04
      1.51214947e-03 1.52716041e-03 5.13683714e-04 1.53713161e-03
      1.84789170e-02 4.24374491e-01 3.61267745e-01 2.44632408e-01
      9.45413951e-04 1.52716041e-03 0. 0. 0. 0. 0. 0. 0. 0. 0.
      6.99578959e-04 4.92930412e-04 7.80035928e-02 2.80341238e-01
      4.24374491e-01 4.24374491e-01 4.24374491e-01 2.41671980e-04
      6.99578959e-04 0. 0. 0. 0. 0. 0. 0. 0. 0. 0. 0. 0. 0. 0. 0. 0. 0.
      0. 0. 0. 0. 0. 0. 0. 0. 0. 0. 0. 0. 0. 0. 0. 0. 0. 0. 0. 0. 0. 0.
      0. 0. 0. 0. 0. 0. 0. 0. 0. 0. 0. 0. 0. 0. 0. 1.33036030e-02
      2.15789909e-03 6.45725103e-03 0. 6.58413861e-03 0. 0. 0.
      1.33036030e-02 0. 0. 0. 0. 0. 0. 0. 0. 0. 4.44086075e-01
      9.46800709e-02 4.44086075e-01 4.44086075e-01 4.44086075e-01
      9.68380366e-03 0. 0. 4.44086075e-01</_>
    <_>
      4.47290868e-01 1.47921965e-01 0. 0. 7.63959706e-01 0.
      2.93231644e-02 9.79931187e-03 4.16639775e-01 0. 0. 0. 0. 0. 0. 0.
      0. 0. 4.74433824e-02 0. 0. 0. 8.80015567e-02 0. 0. 0.
      4.74433824e-02 0. 0. 0. 0. 0. 0. 0. 0. 0. 0. 0. 0. 0. 0. 0. 0. 0.
      0. 0. 0. 0. 0. 0. 0. 0. 0. 0. 0. 0. 0. 0. 0. 0. 0. 0. 0. 0. 0. 0.
      0. 0. 0. 0. 0. 0. 0. 0. 0. 0. 0. 0. 0. 0. 0. 4.37559327e-04 0. 0.
      4.44680220e-03 7.24525154e-01 1.68215465e-02 0. 0. 4.37559327e-04
      0. 0. 0. 0. 0. 0. 0. 0. 0. 0. 0. 0. 0. 6.83759987e-01
      6.39053527e-04 0. 0. 0. 5.96746942e-03 4.34575379e-02
      3.60101685e-02 4.15442511e-02 4.39710051e-01 1.19625822e-01
      1.07251614e-01 6.31068469e-05 1.94702880e-03 7.17336312e-02
      1.24143615e-01 1.10035017e-01 1.00506119e-01 4.39710051e-01
      1.59493133e-01 1.55853942e-01 2.65039336e-02 6.79290146e-02
      1.46023260e-04 1.85736702e-04 4.17161873e-03 1.40748741e-02
      4.39710051e-01 6.94073290e-02 6.24743402e-02 0. 7.24981073e-05
      4.54239324e-02 2.88973283e-02 1.81967869e-01 1.54395461e-01
      4.39710051e-01 1.00069180e-01 1.00536548e-01 3.25205140e-02
      6.07346445e-02 1.59429789e-01 2.12213203e-01 1.34295166e-01
      5.34305722e-02 2.32037336e-01 2.65628267e-02 7.25642294e-02
      7.94991553e-02 1.62912950e-01 1.95488110e-01 2.27338046e-01
      1.21814720e-01 5.01781423e-03 9.30971280e-02 3.77248414e-02
      2.70834237e-01 1.80168152e-01 2.46878117e-01 1.44821286e-01
      2.05881476e-01 2.48733729e-01 1.36289462e-01 2.70834237e-01
      1.94606949e-02 7.47195333e-02 7.93841407e-02 1.43499792e-01
      1.26682758e-01 2.40049824e-01 1.23542719e-01 4.45949435e-02
      2.70834237e-01 1.07641220e-01 2.70834237e-01 1.53060958e-01
      9.49414149e-02 7.16520622e-02 3.52653489e-02 1.32924542e-02 0.
      1.23563560e-03 2.47111591e-03 1.65370200e-02 2.91244611e-02
      4.55166847e-02 8.32006186e-02 6.00353293e-02 1.80254187e-02 0.
      3.89157678e-04 1.12323451e-03 1.79628655e-02 3.40624340e-02
      8.34587440e-02 2.80285895e-01 2.80285895e-01 2.80285895e-01
      8.38911980e-02 1.17988162e-01 1.03417248e-01 2.80285895e-01
      2.50573486e-01 2.80285895e-01 2.80285895e-01 2.80285895e-01
      2.80285895e-01 5.78033477e-02 2.55088899e-02 7.44805112e-02
      2.80285895e-01 2.80285895e-01 2.80285895e-01 7.37711340e-02
      4.28123996e-02 1.16247525e-02 3.02720553e-04 1.54325704e-03 0.
      1.96483806e-02 4.08577248e-02 7.78415948e-02 8.47279280e-02
      5.42836525e-02 2.84246672e-02 2.20647175e-03 4.23189625e-03
      1.06760133e-04 2.82104630e-02 3.25817391e-02 1.00859679e-01
      2.90550560e-01 2.90550560e-01 1.85702518e-01 3.86048444e-02
      1.05903950e-02 1.84623674e-02 2.70081222e-01 2.90550560e-01
      2.90550560e-01 2.90550560e-01 2.90550560e-01 2.90550560e-01
      5.27253076e-02 1.99804865e-02 4.28345837e-02 2.90550560e-01
      2.90550560e-01 2.90550560e-01 6.08455539e-02 6.42574504e-02
      2.31820140e-02 1.06924365e-03 1.32357446e-03 1.15901371e-03
      4.08990197e-02 3.12108845e-02 9.54085067e-02 6.64655492e-02
      5.93580268e-02 2.18765270e-02 3.50011582e-03 2.11807918e-02
      3.94000765e-03 5.11535108e-02 1.76117346e-02 8.65255296e-02
      2.86741853e-01 2.86741853e-01 2.86741853e-01 3.21182087e-02
      6.96776807e-03 6.89065754e-02 2.86741853e-01 2.73512602e-01
      2.86741853e-01 2.86741853e-01 2.86741853e-01 2.77755469e-01
      1.89297963e-02 5.02483547e-02 3.05351559e-02 2.86741853e-01
      2.36882582e-01 2.86741853e-01 2.08856277e-02 2.01990772e-02
      8.13287348e-02 6.23090193e-02 4.41371769e-01 8.28766357e-03
      9.66020208e-03 4.98627406e-03 2.46413425e-02 7.57562974e-03
      1.80539247e-02 1.44708827e-01 1.23215765e-01 4.41371769e-01
      1.76601466e-02 3.18968319e-03 4.73385863e-03 1.18148066e-02
      1.66972265e-01 1.00025974e-01 2.47081190e-01 1.06513709e-01
      3.23035091e-01 4.62925760e-03 7.29122758e-02 9.55226943e-02
      2.51726240e-01 2.52867881e-02 2.33309772e-02 1.97010607e-01
      1.44226730e-01 4.41371769e-01 5.99287935e-02 4.27804142e-03
      2.70120911e-02 6.66474998e-02 2.79601663e-02 3.33660357e-02
      1.08744130e-01 8.57692137e-02 4.87553328e-01 1.03305867e-02
      1.06778368e-02 1.15239024e-02 2.82733515e-02 2.38303859e-02
      3.20799686e-02 1.47412876e-02 4.28972803e-02 4.87553328e-01
      4.71244156e-02 5.94522022e-02 1.53268632e-02 1.51971690e-02
      2.73433718e-04 3.99424322e-03 2.08802968e-02 5.71056828e-02
      4.87553328e-01 8.88236314e-02 2.31703700e-04 1.24474129e-04
      3.50587594e-04 6.08427636e-03 1.22940110e-05 0. 1.51255112e-02
      4.87553328e-01 1.68265346e-02 6.49224792e-04 1.01988472e-03
      6.23380858e-03 2.28415042e-01 2.28415042e-01 2.26771131e-01
      9.13952440e-02 1.53242245e-01 8.29941109e-02 1.93336606e-01
      1.22173831e-01 2.28415042e-01 2.28415042e-01 2.28415042e-01
      2.27004737e-01 5.29076830e-02 3.81619073e-02 6.13700226e-02
      1.72602698e-01 1.58445239e-01 2.28415042e-01 2.28415042e-01
      2.28415042e-01 6.86939508e-02 1.31838489e-02 1.08882993e-01
      8.14934373e-02 1.51946202e-01 1.39635786e-01 2.28415042e-01
      2.28415042e-01 2.28415042e-01 1.23301491e-01 5.50220953e-03
      3.21307369e-02 5.84267154e-02 1.46028996e-01 8.80466327e-02
      2.28415042e-01 2.44486019e-01 2.33220145e-01 1.16928987e-01
      3.73249575e-02 1.27618294e-02 1.78629402e-02 1.74080193e-01
      2.21584991e-01 2.44486019e-01 2.44486019e-01 2.44486019e-01
      1.95757568e-01 4.23718467e-02 1.31436633e-02 4.17800173e-02
      1.75833881e-01 2.13782221e-01 2.44486019e-01 2.44486019e-01
      2.42434174e-01 1.65038005e-01 6.93993969e-03 4.56290245e-02
      1.90269891e-02 5.99532872e-02 1.08002953e-01 2.44486019e-01
      2.44486019e-01 1.90504506e-01 8.75017494e-02 5.27481828e-03
      3.35088484e-02 1.75484344e-02 1.17716596e-01 1.69027790e-01
      2.44486019e-01 1.98962584e-01 2.07609519e-01 2.05747008e-01
      2.64920220e-02 5.96946478e-03 6.47173598e-02 1.92993835e-01
      1.46096691e-01 2.35978723e-01 2.35978723e-01 2.35978723e-01
      1.74338400e-01 1.09344414e-02 3.09476834e-02 2.04353388e-02
      2.23464504e-01 1.47751629e-01 2.35978723e-01 2.35978723e-01
      1.51644751e-01 9.50746238e-02 2.35669389e-02 6.90268129e-02
      5.83814271e-02 8.81931484e-02 1.13161683e-01 2.35978723e-01
      2.35978723e-01 2.35978723e-01 1.85096174e-01 9.47550535e-02
      1.47873938e-01 1.24667771e-01 8.12080503e-02 2.35978723e-01
      2.35978723e-01 2.01909989e-01 8.69865343e-02 1.62536487e-01
      4.55846079e-02 2.18971208e-01 3.05040879e-03 6.23413585e-02
      1.17981292e-01 2.94384390e-01 4.16834950e-02 9.01021995e-03
      1.01261526e-01 1.49009794e-01 4.56672668e-01 1.36014521e-01
      3.33791319e-03 3.68158668e-02 8.88470635e-02 2.19066113e-01
      1.30969629e-01 7.02121332e-02 3.21834423e-02 1.48726404e-01
      8.43580663e-02 1.59470811e-01 1.73916638e-01 2.36921221e-01
      6.51599839e-02 1.76430643e-02 8.93823802e-03 1.39914796e-01
      4.56672668e-01 1.52937829e-01 1.35848373e-01 5.58763072e-02
      7.55751282e-02 1.96895475e-04 5.76493505e-04 3.01236263e-03
      1.07675813e-01 4.82348889e-01 1.33103639e-01 3.75918520e-04
      2.31100013e-04 3.90634610e-04 9.38196573e-03 1.80081654e-04
      5.38873021e-04 1.54320458e-02 4.82348889e-01 1.67942867e-02
      5.59598906e-04 5.49449760e-04 9.45706666e-03 2.44456198e-04
      1.07588039e-05 3.21944426e-05 1.39190033e-01 4.82348889e-01
      1.19987920e-01 1.01418095e-02 2.30294233e-03 3.45103355e-04
      8.03283323e-03 2.77165993e-04 8.29386292e-04 1.45847723e-02
      4.82348889e-01 1.71579514e-02 3.51904746e-04 1.19329244e-03
      8.25572945e-03 2.74999112e-01 2.74999112e-01 1.13515615e-01
      3.84452869e-04 9.97494012e-02 1.59709945e-01 2.53345132e-01
      2.26867989e-01 2.74999112e-01 2.74999112e-01 2.74999112e-01
      2.49047741e-01 1.70830125e-03 3.55673581e-02 1.24124356e-01
      2.74999112e-01 1.81502268e-01 2.74999112e-01 1.29039764e-01
      1.47084415e-01 2.95308232e-02 2.26211050e-04 1.86393615e-02
      5.57079688e-02 6.39945194e-02 5.91063984e-02 1.26089633e-01
      1.63502052e-01 1.86454415e-01 8.32812339e-02 1.47575676e-03
      9.87794064e-03 4.31533754e-02 1.07904345e-01 6.38441667e-02
      2.00077072e-01 2.96953887e-01 2.96953887e-01 2.96953887e-01
      3.93277360e-03 5.17389849e-02 4.10778224e-02 1.24622755e-01
      1.95366770e-01 2.96953887e-01 2.96953887e-01 2.96953887e-01
      1.49305105e-01 2.86290958e-03 3.35666426e-02 4.15831655e-02
      2.22667813e-01 2.80322373e-01 2.96953887e-01 1.46364123e-01
      1.41979769e-01 9.60252881e-02 2.28006998e-03 1.03883101e-02
      1.51411630e-02 4.40360382e-02 5.25390841e-02 1.71876594e-01
      2.03584582e-01 8.83694440e-02 3.64510268e-02 1.76794315e-03
      8.57048575e-03 1.95905790e-02 6.09886236e-02 6.16760366e-02
      1.56241894e-01 2.73340255e-01 2.68794477e-01 1.81513503e-01
      4.07580137e-02 9.00875852e-02 1.37545541e-01 1.61999896e-01
      1.81156352e-01 2.73340255e-01 2.73340255e-01 2.73340255e-01
      2.73340255e-01 1.71301737e-01 1.73580468e-01 2.31562257e-01
      1.45311207e-01 2.73340255e-01 2.73340255e-01 1.98621914e-01
      7.14233741e-02 5.62017001e-02 1.12827113e-02 1.80333052e-02
      5.74876741e-02 4.26482707e-02 3.85643989e-02 1.44301504e-01
      1.23688482e-01 6.63518608e-02 1.14747532e-01 4.50337045e-02
      2.60554720e-02 6.95037916e-02 3.85226868e-02 4.84098569e-02
      1.65129736e-01 1.42851844e-01 1.04223855e-01 7.75986984e-02
      3.31988037e-02 2.34179437e-01 9.25092474e-02 2.15998754e-01
      1.38787955e-01 1.88425839e-01 3.73364054e-02 1.52339470e-02
      9.32901166e-03 5.79075925e-02 4.83977705e-01 9.63514224e-02
      2.01928109e-01 5.63589111e-02 5.18370681e-02 3.00093815e-02
      1.80936549e-02 2.15923786e-02 1.36000998e-02 4.83977705e-01
      3.73729169e-02 8.80482122e-02 2.69638412e-02 4.83314954e-02
      5.69461379e-03 3.01247812e-03 2.75871437e-03 4.30498347e-02
      4.83977705e-01 5.88728376e-02 9.16961953e-02 1.69607885e-02
      1.03030056e-02 3.54075077e-04 1.28586646e-04 1.85893896e-05
      8.74958783e-02 4.86674547e-01 7.30914399e-02 2.67713834e-02
      5.49794035e-03 3.10629199e-04 4.20451444e-03 8.17268214e-04
      1.93210057e-04 3.59774381e-02 4.86674547e-01 6.34835288e-02
      6.90441288e-04 6.67415268e-04 3.77721922e-03 6.09986670e-03
      3.41537700e-04 2.63666414e-04 5.33947721e-02 4.86674547e-01
      4.01917771e-02 1.46240490e-02 2.59447610e-03 5.44038462e-03
      1.37158455e-02 1.71794067e-03 1.85523488e-04 1.24922991e-01
      4.86674547e-01 8.90317187e-02 2.58146366e-03 1.70104904e-03
      1.18461335e-02 2.91606307e-01 4.12898362e-02 1.25726834e-01
      4.44327714e-03 2.67771512e-01 0. 9.83900651e-02 3.28802280e-02
      2.82926828e-01 5.32938898e-01 1.75028831e-01 2.05689356e-01
      8.75425860e-02 2.16960818e-01 0. 1.71260163e-01 6.74109980e-02
      5.32938898e-01 0. 0. 0. 0. 0. 0. 0. 0. 0. 0. 0. 0. 0. 0. 0. 0. 0.
      0. 4.77287680e-01 1.12819202e-01 4.49126251e-02 9.41637903e-02
      2.20138341e-01 3.66582945e-02 7.91418999e-02 6.72812611e-02
      4.77287680e-01 3.68458599e-01 1.85705554e-02 4.97763045e-02
      5.40573671e-02 3.74150008e-01 6.58339858e-02 2.25554919e-03
      3.25130746e-02 4.10521150e-01 0. 0. 0. 0. 0. 0. 0. 0. 0. 0. 0. 0.
      0. 0. 0. 0. 0. 0. 5.74170873e-02 2.93790665e-03 9.89118498e-03
      2.24979129e-03 5.72421886e-02 1.13056581e-02 0. 9.68657061e-03
      6.02361411e-02 5.61625473e-02 3.21446499e-03 9.61886998e-03 0.
      4.23529923e-01 1.39805730e-02 1.33516388e-02 2.64913738e-02
      7.29056075e-02 0. 0. 0. 0. 0. 0. 0. 0. 0. 0. 0. 0. 0.
      8.89697850e-01 0. 0. 0. 0. 3.58066696e-04 5.18225320e-03
      2.93093771e-02 2.75764596e-02 4.52332020e-01 7.93539640e-03
      5.11917984e-04 2.23820622e-04 4.51683707e-04 1.29078003e-02
      3.05032749e-02 4.49265316e-02 5.17298542e-02 4.52332020e-01
      3.42316069e-02 1.08107969e-01 1.95092671e-02 1.30740916e-02
      1.13018825e-04 2.22762208e-02 9.59762484e-02 8.41554329e-02
      4.52332020e-01 6.64334670e-02 5.73355183e-02 1.07788874e-04
      1.13018825e-04 4.25854027e-02 9.50542092e-02 1.40405729e-01
      1.11914009e-01 4.52332020e-01 1.27155840e-01 2.59413987e-01
      3.52714844e-02 6.21794201e-02 7.82729462e-02 1.25618935e-01
      5.94896190e-02 1.77775789e-02 2.85990924e-01 3.03258598e-02
      1.44253716e-01 3.16964127e-02 6.45092130e-02 1.23029649e-01
      1.32367656e-01 6.73459694e-02 1.43882841e-01 2.85990924e-01
      4.38249409e-02 1.04708202e-01 5.90942763e-02 1.35182917e-01
      1.65262297e-01 2.85990924e-01 1.17267340e-01 1.83012616e-02
      2.85990924e-01 6.79839104e-02 2.59541661e-01 6.10398799e-02
      1.67088956e-01 2.81589299e-01 2.85990924e-01 1.29940644e-01
      9.61791277e-02 2.67153949e-01 3.07824425e-02 1.63959295e-01
      1.25829712e-01 2.78382272e-01</_>
    <_>
      0. 0. 0. 0. 0. 0. 0. 0. 0. 0. 0. 0. 0. 0. 0. 0. 0. 0. 0. 0. 0. 0.
      0. 0. 0. 0. 0. 0. 0. 0. 0. 0. 0. 0. 0. 0. 0. 0. 0. 0. 0. 0. 0. 0.
      0. 0. 0. 0. 0. 0. 0. 0. 0. 0. 0. 0. 0. 0. 0. 0. 0. 0. 0. 0. 0. 0.
      0. 0. 0. 0. 0. 0. 0. 0. 0. 0. 0. 0. 0. 0. 0. 2.47254525e-03 0.
      2.51793057e-01 3.64364892e-01 5.01261592e-01 3.17068517e-01
      3.38164091e-01 0. 2.47254525e-03 0. 0. 0. 0. 0. 0. 0. 0. 0.
      5.17340284e-03 4.52365872e-04 1.81398578e-02 3.07222810e-02
      5.01261592e-01 2.31662899e-01 1.62517503e-01 0. 5.17340284e-03
      1.01973051e-02 1.82612743e-02 9.13439691e-02 1.11440919e-01
      3.66789341e-01 1.20684534e-01 8.97635967e-02 2.88637548e-05
      2.58484902e-03 1.02372333e-01 6.27879426e-02 1.70352846e-01
      1.44462273e-01 3.66789341e-01 1.18967578e-01 9.87542495e-02
      1.77366026e-02 6.87965974e-02 8.84248177e-04 2.26775315e-04
      4.75489302e-03 1.09527342e-01 3.66789341e-01 2.40344301e-01
      5.18873259e-02 6.35002580e-05 8.20964517e-04 6.26067445e-02
      5.05771711e-02 1.56482831e-01 2.78187513e-01 3.66789341e-01
      3.54349345e-01 9.07608494e-02 3.02681644e-02 7.45353624e-02
      1.78874597e-01 1.34786010e-01 1.15026988e-01 4.21848707e-02
      9.01644155e-02 1.23149678e-02 7.84130394e-02 7.69394487e-02
      1.77200422e-01 2.39479527e-01 2.46236473e-01 7.09732324e-02
      2.18313071e-03 7.69986585e-02 5.90675287e-02 1.95220515e-01
      1.47278935e-01 2.51994550e-01 2.02076524e-01 2.21521839e-01
      1.92491323e-01 1.36352286e-01 2.51994550e-01 8.53568912e-02
      1.25713378e-01 9.34214815e-02 2.41022363e-01 2.15430409e-01
      2.51994550e-01 1.03000209e-01 1.44223282e-02 2.51994550e-01
      1.99325323e-01 2.08228946e-01 1.03424996e-01 2.18708843e-01
      8.35457668e-02 3.44466344e-02 1.95112936e-02 8.90413939e-04 0.
      1.48190372e-03 3.41042839e-02 4.68301550e-02 7.21639842e-02
      8.28296244e-02 1.47184581e-02 1.43702922e-03 4.68193815e-04
      2.50712299e-04 1.49504782e-03 1.39804520e-02 2.54712701e-02
      7.24538043e-02 3.22863549e-01 3.22863549e-01 1.37533158e-01
      1.37709146e-02 2.51828507e-02 5.10680303e-02 3.22863549e-01
      3.22863549e-01 3.22863549e-01 3.22863549e-01 3.22863549e-01
      8.60792212e-03 1.06082868e-03 1.65022118e-03 2.93337014e-02
      2.09743246e-01 2.55498499e-01 3.22863549e-01 8.35086331e-02
      2.58100387e-02 4.99312114e-03 3.07835522e-04 4.17241012e-04
      1.72415806e-03 3.18181003e-03 1.22990096e-02 6.47026077e-02
      1.20898031e-01 5.77037968e-02 1.40106259e-02 0. 3.37135862e-04
      7.04970304e-03 1.85236242e-02 1.30094327e-02 1.06205165e-01
      3.61375183e-01 3.61375183e-01 5.27800880e-02 2.38234503e-03
      5.06765535e-03 1.73574407e-02 1.08322784e-01 1.71135783e-01
      3.61375183e-01 3.61375183e-01 3.61375183e-01 1.74163386e-01
      1.68535132e-02 3.20579745e-02 6.03767782e-02 2.76668221e-01
      1.21912330e-01 3.61375183e-01 1.31845579e-01 3.41028832e-02
      5.24633005e-03 0. 6.58891950e-05 7.59567600e-03 1.43280774e-02
      1.08080059e-02 1.03161842e-01 1.63831621e-01 3.66802774e-02
      8.10603146e-03 1.26747461e-02 1.31361589e-01 1.02028083e-02
      1.15787853e-02 1.16030015e-02 1.16291031e-01 3.60878915e-01
      3.60878915e-01 8.49014223e-02 2.92085949e-02 3.65468152e-02
      4.77320850e-02 1.74003363e-01 1.20237365e-01 3.60878915e-01
      3.60878915e-01 3.60878915e-01 9.22548398e-02 5.61650097e-02
      1.04079820e-01 4.29915152e-02 1.22634374e-01 1.73311219e-01
      3.60878915e-01 4.71260995e-02 2.83756852e-02 1.09861856e-02
      1.66618258e-01 3.99116844e-01 8.73964578e-02 5.78622287e-03
      1.96751766e-03 2.58422699e-02 1.85569953e-02 2.34817248e-02
      3.32157314e-02 2.70361364e-01 3.99116844e-01 1.53373018e-01
      1.09891118e-02 5.03665814e-03 1.39132487e-02 2.98822701e-01
      2.28619695e-01 6.44107163e-02 1.33101538e-01 3.20071042e-01
      3.26819010e-02 2.90339962e-02 2.99513806e-02 1.93690568e-01
      7.11298585e-02 1.08274840e-01 3.83735485e-02 2.13015005e-01
      3.99116844e-01 9.91718918e-02 1.53251505e-03 9.74703406e-04
      1.59810204e-02 5.44992127e-02 5.31728789e-02 4.76136357e-02
      1.21841550e-01 4.55006927e-01 7.15846121e-02 2.83457916e-02
      2.35449225e-02 7.04507306e-02 5.91161400e-02 8.27424452e-02
      2.08191164e-02 7.34375864e-02 4.55006927e-01 1.48936167e-01
      4.21958342e-02 2.09434684e-02 6.10152520e-02 5.63044276e-04
      7.02946912e-04 4.35835507e-04 9.84233394e-02 4.55006927e-01
      8.30637291e-02 9.04978544e-04 3.19930579e-04 2.93443998e-04
      2.02971138e-02 1.19295473e-04 5.34777753e-02 2.36077815e-01
      4.55006927e-01 1.12597525e-01 1.28806380e-04 2.10239632e-05
      2.02802252e-02 2.84304887e-01 2.35415220e-01 7.19440430e-02
      9.59140714e-03 8.07485506e-02 5.01971617e-02 2.07004577e-01
      1.81659430e-01 2.84304887e-01 2.84304887e-01 2.59849280e-01
      4.92632343e-03 2.90173892e-04 2.70064571e-03 2.62485724e-02
      1.55035332e-01 1.48964405e-01 2.84304887e-01 2.84304887e-01
      1.90323591e-01 6.66104481e-02 3.29268794e-03 1.64788753e-01
      1.75698884e-02 6.48316741e-02 8.79256278e-02 2.28035763e-01
      2.84304887e-01 1.65233999e-01 6.53326660e-02 1.21187522e-05
      5.70528395e-03 1.10378815e-02 6.14352711e-02 6.11357987e-02
      2.84304887e-01 2.84220934e-01 2.84220934e-01 3.06614693e-02
      1.86118367e-03 5.14167733e-03 1.24768503e-02 9.27948430e-02
      1.04014434e-01 2.84220934e-01 2.84220934e-01 2.84220934e-01
      1.05495915e-01 1.68985892e-02 3.27441469e-02 3.83023582e-02
      1.76031053e-01 6.78353459e-02 2.84220934e-01 2.84220934e-01
      1.44816145e-01 2.47932728e-02 1.13977803e-04 1.42293097e-02
      1.80574972e-02 1.02322817e-01 1.08876608e-01 2.84220934e-01
      2.84220934e-01 1.72305077e-01 5.05165160e-02 1.33146718e-03
      2.27547064e-02 9.08341911e-03 1.12163618e-01 1.92065090e-01
      2.70695150e-01 2.81929702e-01 2.41507888e-01 6.34863824e-02
      3.25245857e-02 4.27167863e-02 2.81866137e-02 1.13632001e-01
      7.71948248e-02 2.81929702e-01 2.81929702e-01 2.34997809e-01
      6.78940639e-02 3.93816568e-02 5.61290458e-02 1.86388046e-02
      7.76566491e-02 1.17649674e-01 2.81929702e-01 2.81929702e-01
      1.68645889e-01 7.63688982e-02 3.87678109e-02 7.45645985e-02
      2.61047622e-03 8.09029415e-02 1.47746801e-01 2.64706850e-01
      2.81929702e-01 2.48490319e-01 2.88574491e-02 4.87612188e-02
      6.60236999e-02 1.32436473e-02 1.42923623e-01 2.03533992e-01
      2.81929702e-01 2.98707515e-01 2.17767462e-01 6.17498159e-02
      4.60911244e-02 1.41767576e-01 1.88837871e-02 3.06575168e-02
      3.42263654e-02 2.20170692e-01 7.06615299e-02 9.82401446e-02
      2.93879546e-02 1.05437540e-01 5.29966116e-01 1.26295075e-01
      3.00064660e-03 2.41832761e-03 2.21931115e-02 2.07935899e-01
      1.51639327e-01 1.98906451e-03 9.66653507e-03 1.22073971e-01
      2.43927408e-02 1.28204137e-01 1.52575180e-01 1.84684902e-01
      3.49687748e-02 2.07246095e-02 1.13247463e-03 5.69924936e-02
      5.29966116e-01 7.55271614e-02 6.61053210e-02 6.29576594e-02
      4.09757905e-02 3.93082533e-04 5.63727925e-04 1.26453248e-04
      3.83617021e-02 4.40902531e-01 6.39112666e-02 9.38033394e-04
      4.53258952e-04 1.73886656e-04 1.52892517e-02 8.45310715e-05
      5.40778376e-02 2.27773234e-01 4.40902531e-01 1.66651726e-01
      1.06373787e-04 3.27339549e-05 1.52717354e-02 7.62218551e-04
      8.27510434e-04 1.95432251e-04 3.06279119e-02 4.40902531e-01
      3.28299701e-02 1.07744068e-03 3.71279486e-04 5.92864759e-04
      1.10861119e-02 1.85968369e-04 1.99571047e-02 2.34665617e-01
      4.40902531e-01 2.67736644e-01 1.13419766e-04 3.79029880e-05
      1.10475766e-02 2.99579084e-01 2.99579084e-01 1.44759610e-01
      1.49772526e-03 6.93656057e-02 2.02437248e-02 1.52704448e-01
      2.09352061e-01 2.99579084e-01 2.99579084e-01 2.82569259e-01
      1.50908098e-01 0. 5.51241636e-03 1.34536941e-02 1.23547502e-01
      1.39452919e-01 2.99579084e-01 2.91708142e-01 1.77949309e-01
      6.05675802e-02 0. 4.32442315e-03 5.99885965e-03 7.52573088e-02
      9.51200426e-02 1.53429225e-01 2.99579084e-01 1.03287302e-01
      6.64901212e-02 0. 1.97318476e-03 3.49345896e-03 5.30452468e-02
      6.07415289e-02 2.17509404e-01 2.81108201e-01 2.34231442e-01
      5.56874722e-02 0. 1.25920800e-02 2.23691538e-02 1.86395392e-01
      2.35116720e-01 2.81108201e-01 2.81108201e-01 2.81108201e-01
      1.16177782e-01 2.83247908e-04 2.48907264e-02 9.92084015e-03
      2.26787984e-01 2.81108201e-01 2.81108201e-01 2.24372119e-01
      8.74826759e-02 2.53884494e-02 0. 2.53837393e-03 4.81676869e-03
      7.28074238e-02 1.07084766e-01 1.83926821e-01 2.45780498e-01
      1.63989887e-01 5.59549108e-02 6.53649040e-05 6.48999633e-03
      2.09387625e-03 9.49092582e-02 2.20904127e-01 2.26301283e-01
      2.68037438e-01 2.68037438e-01 1.66106969e-01 7.89054781e-02
      1.12179540e-01 4.19244030e-03 1.66902706e-01 2.68037438e-01
      2.68037438e-01 2.68037438e-01 2.68037438e-01 5.87866716e-02
      1.01576991e-01 1.42515332e-01 3.86194661e-02 2.29276001e-01
      2.68037438e-01 2.68037438e-01 1.84970692e-01 1.30845070e-01
      7.86822140e-02 3.57580073e-02 4.30563800e-02 1.95449311e-03
      7.35028312e-02 1.38912752e-01 2.11741179e-01 1.80636689e-01
      1.07729562e-01 2.76002083e-02 4.83769141e-02 1.73085719e-01
      2.91762333e-02 7.91469067e-02 9.44054648e-02 1.91390425e-01
      1.84148461e-01 1.61699399e-01 6.01971406e-04 1.37503473e-02
      2.76713759e-01 8.57266933e-02 1.61155298e-01 1.64163470e-01
      1.57987595e-01 2.72697154e-02 2.13199295e-02 1.43334165e-03
      5.13358638e-02 4.41937923e-01 9.89660248e-02 9.10365582e-02
      6.97972551e-02 2.77757347e-02 5.41751981e-02 4.57058847e-02
      2.47543794e-03 6.31316677e-02 4.41937923e-01 1.64992809e-01
      6.60353601e-02 4.76971976e-02 4.63101305e-02 1.07336817e-02
      7.94657692e-03 2.57680789e-02 2.05619007e-01 4.41937923e-01
      2.61717409e-01 5.40170558e-02 2.17005815e-02 5.03283041e-03
      1.60515867e-03 2.50278012e-04 6.50069385e-04 4.53740656e-02
      4.54661280e-01 2.88751218e-02 1.94244925e-03 2.83639733e-04
      1.56645710e-03 4.86018602e-03 4.31016815e-05 6.35258202e-03
      6.86073303e-02 4.54661280e-01 2.82335371e-01 3.13044147e-04
      6.93395341e-05 4.85125463e-03 2.69827843e-02 1.04317712e-02
      2.25274190e-02 1.40449926e-01 4.54661280e-01 1.08503886e-01
      1.17855649e-02 4.95478336e-04 2.23473143e-02 2.13370547e-02
      6.78712362e-03 2.16495409e-03 1.14682302e-01 4.54661280e-01
      1.82511345e-01 1.44022494e-03 2.86140799e-04 2.69885436e-02
      6.01972878e-01 9.74321179e-03 1.12536447e-02 0. 8.42834339e-02 0.
      2.19795723e-02 9.28262994e-03 6.01972878e-01 2.76657254e-01
      9.80101898e-02 2.47580167e-02 0. 7.48601407e-02 0. 5.66479601e-02
      2.73263417e-02 4.06243980e-01 0. 0. 0. 0. 0. 0. 0. 0. 0. 0. 0. 0.
      0. 0. 0. 0. 0. 0. 1.92445070e-01 5.68478741e-02 4.68599843e-03 0.
      7.13109747e-02 0. 2.82740667e-02 1.20685948e-02 2.26397708e-01
      6.62788749e-01 5.11865914e-02 3.50019783e-02 0. 1.15330175e-01 0.
      8.69173277e-03 2.90462421e-03 6.62788749e-01 0. 0. 0. 0. 0. 0. 0.
      0. 0. 0. 0. 0. 0. 0. 0. 0. 0. 0. 4.50704657e-02 9.64076607e-04
      1.54612924e-03 5.30533493e-04 8.27104785e-03 1.51263215e-04
      2.05402612e-03 1.27494393e-03 5.46029992e-02 2.19973437e-02
      2.86675822e-05 6.38528615e-02 1.42259493e-01 4.53791201e-01
      2.75276210e-02 8.49632733e-03 3.81775410e-03 2.75879465e-02 0. 0.
      0. 0. 0. 0. 0. 0. 0. 1.93850789e-03 0. 4.44459170e-01
      4.53791201e-01 4.53791201e-01 2.88879544e-01 2.55307913e-01
      2.77978391e-03 1.93850789e-03 4.32724570e-04 0. 1.86584499e-02
      1.62944898e-01 3.53034228e-01 9.69417617e-02 5.69143007e-03
      2.54567305e-04 4.66494530e-04 4.55569625e-02 7.25729391e-02
      7.16317743e-02 3.08670163e-01 3.53034228e-01 2.85257488e-01
      9.09074768e-02 4.15113667e-04 4.06033359e-02 3.23348562e-04 0.
      1.13465957e-01 2.08129004e-01 3.53034228e-01 1.10239349e-01
      1.20757416e-01 7.36600906e-03 4.54381952e-04 8.04854706e-02
      9.96831059e-02 1.18191294e-01 2.25241497e-01 3.53034228e-01
      2.03559116e-01 2.17805445e-01 9.44651198e-03 9.75229740e-02
      1.50628373e-01 2.07189471e-01 7.79885873e-02 1.10116117e-01
      2.55253643e-01 1.60204008e-01 1.55243397e-01 2.14165021e-02
      1.35596693e-01 1.62959471e-01 2.12556362e-01 9.54077840e-02
      1.40881971e-01 2.55253643e-01 1.05479203e-01 1.31802857e-01
      4.19602357e-02 1.71355307e-01 2.19229057e-01 2.55253643e-01
      6.90297335e-02 3.06227375e-02 2.33163491e-01 1.06659941e-01
      1.96577206e-01 3.93881872e-02 2.16000795e-01 2.55253643e-01
      2.55253643e-01 1.27752200e-01 6.61085322e-02 1.69990450e-01
      5.77648282e-02 1.68720916e-01 7.76692182e-02 2.55253643e-01</_>
    <_>
      3.79868090e-01 1.64673492e-01 4.73986208e-01 4.73986208e-01
      4.73986208e-01 0. 4.88591660e-03 1.63279159e-03 3.78687769e-01
      4.47802682e-04 2.80767214e-04 8.40159366e-04 0. 6.37392886e-03 0.
      2.03677424e-04 6.80655940e-05 4.47802682e-04 5.02296835e-02
      4.01199888e-03 8.38054903e-03 2.54847072e-02 2.30825022e-02 0.
      1.06370691e-02 3.55472788e-03 4.96931635e-02 0. 6.47924389e-05
      1.93882937e-04 0. 1.82911113e-04 0. 0. 0. 0. 0. 0. 0. 0. 0. 0. 0.
      0. 0. 0. 0. 0. 0. 0. 0. 0. 0. 0. 0. 0. 0. 0. 0. 0. 0. 0. 0. 0. 0.
      0. 0. 0. 0. 0. 0. 0. 0. 0. 0. 0. 0. 0. 0. 0. 0. 2.23672632e-02
      2.46276380e-03 1.28196031e-01 2.96571642e-01 5.11909902e-01
      3.29840153e-01 3.16104680e-01 2.28311922e-02 1.52065753e-04 0. 0.
      0. 0. 0. 0. 0. 0. 0. 2.28098640e-03 1.18464418e-03 3.54490010e-03
      2.66439989e-02 5.11909902e-01 2.76813716e-01 2.81054944e-01
      1.72811430e-02 2.28098640e-03 1.44946976e-02 3.93343046e-02
      6.42160326e-02 9.88226235e-02 3.95961374e-01 1.12248980e-01
      1.01611815e-01 7.61218462e-03 2.06959201e-03 9.90148187e-02
      1.31285653e-01 2.04446927e-01 1.55654907e-01 3.95961374e-01
      1.23379290e-01 8.12981799e-02 8.66237357e-02 1.33454010e-01
      5.69898228e-04 2.36904575e-03 1.08236708e-02 3.12683247e-02
      3.95961374e-01 1.67299375e-01 1.04150556e-01 5.65774087e-03
      5.31913538e-04 2.48266160e-02 5.29749021e-02 1.51025355e-01
      1.69948995e-01 3.95961374e-01 2.83132046e-01 1.01640172e-01
      4.46376465e-02 4.98595908e-02 1.70013219e-01 1.34743631e-01
      1.50554404e-01 7.89430514e-02 1.96805984e-01 3.64121012e-02
      1.97421256e-02 2.15880424e-01 3.19613606e-01 1.98136508e-01
      1.31380066e-01 1.07826054e-01 1.27677955e-02 3.19613606e-01
      1.35264382e-01 2.03875035e-01 1.20139003e-01 3.00040513e-01
      7.88475275e-02 7.50478581e-02 1.21755674e-01 1.15785785e-01
      3.19613606e-01 1.02143839e-01 2.71457415e-02 1.18107036e-01
      1.84334576e-01 1.06293634e-01 7.62768313e-02 5.32644130e-02
      2.96162535e-02 3.19613606e-01 1.08538099e-01 1.72232643e-01
      6.52915984e-02 1.63826361e-01 1.48333493e-03 0. 0. 0.
      3.17578763e-03 0. 2.43747607e-03 8.14562722e-04 1.48333493e-03 0.
      0. 0. 0. 9.82147991e-04 0. 0. 0. 0. 2.98622280e-01 1.37144238e-01
      8.67926180e-02 1.16111055e-01 3.24674472e-02 0. 0. 1.02202497e-01
      3.89230818e-01 3.89230818e-01 3.89230818e-01 2.93472230e-01
      9.03086066e-02 6.16975687e-02 0. 0. 3.89230818e-01 3.89230818e-01
      1.10646407e-03 2.46691052e-05 7.38193703e-05 0. 1.34505669e-03
      1.62911383e-05 8.55874910e-04 2.83357193e-04 1.10646407e-03
      3.40995565e-03 7.30979664e-04 2.18737009e-03 0. 2.07671756e-03
      2.44367053e-04 2.72082491e-03 8.69329844e-04 3.40995565e-03
      3.50602150e-01 2.06814930e-01 3.08150649e-01 8.27694610e-02
      5.92862032e-02 5.24713134e-04 7.17329467e-03 1.58148974e-01
